6357 10
23 -0.518611 -0.838737 -0.288385 0.503242 -0.400460 0.177740 0.280273 0.833814 0.681169 1.198295
26 -0.028576 -0.288625 -0.106860 1.592370 -0.380572 -0.153505 -0.266186 0.503107 0.871481 1.481388
119 -0.258175 -0.148608 -1.199669 -0.952295 -0.103700 0.474609 0.736614 1.237054 0.532188 -0.373070
117 -0.220911 -0.129210 -1.221731 -0.976372 -0.114039 0.467846 0.737126 1.212574 0.507693 -0.369406
45 0.519983 0.002367 -0.051140 -0.292369 0.683021 -0.276832 -0.122424 0.890102 -0.745248 -0.075895
81 -1.049438 0.269940 0.601579 0.593982 0.431262 0.474200 -0.020904 0.876255 -0.483063 -0.689292
106 -0.502589 0.377450 0.719882 -0.763989 -0.357866 -0.152189 0.837286 0.566117 -0.299778 -0.306297
121 -0.772008 0.770561 0.319464 0.268668 0.200216 0.266142 -0.012464 0.550762 -1.040313 -0.127071
111 -1.647131 -0.238399 -0.011861 -0.073181 0.722478 -1.090157 -0.126232 0.549795 -0.101644 -0.388088
77 -0.032768 0.821055 0.329823 -0.108596 -0.306997 -0.731195 0.732357 0.203426 0.281556 -0.285145
48 0.888319 0.226282 0.433202 0.240498 0.435547 -0.739731 0.280208 0.745789 -0.787645 -0.020796
6 -0.465590 0.819603 -0.631456 0.412223 0.179594 -0.757781 0.006565 0.326342 0.009347 1.013647
87 -0.523157 0.598088 0.954835 -0.035169 0.414994 1.136617 0.259597 0.106142 -0.444445 0.729342
110 0.168287 0.308525 -0.010025 -0.403120 -0.206808 0.286550 0.628108 0.554419 -0.718990 0.115283
7 -0.466401 -0.371463 -0.364593 0.362439 -0.032501 0.278876 0.716293 0.441837 0.507655 0.659699
125 0.268732 0.600996 0.410124 -0.415585 -0.362927 -0.686404 0.644193 0.128860 0.457028 -0.316109
74 0.038708 0.644060 -0.633884 0.015837 0.237604 0.666774 0.603871 0.453343 -0.071809 -0.795985
5 0.762799 0.099513 -0.619485 0.403596 0.781823 0.379273 0.832094 -0.389006 -0.096251 -0.111479
72 -0.568212 0.327466 0.209020 0.764297 0.795480 1.081330 0.412811 -0.239994 -0.300054 -0.635495
96 -0.584388 -0.553639 -0.154856 0.405118 0.437582 0.348110 1.366284 -0.582856 -0.605781 -0.371041
10 -0.073111 0.802761 -0.299558 1.243667 0.948635 -0.699408 0.060849 0.108612 0.177162 -0.549269
78 0.155522 0.659086 0.408750 0.031573 -0.358290 -0.726159 0.697256 0.149930 0.671296 -0.316447
130 -0.014672 0.850433 -0.421421 0.000116 0.017280 0.725533 0.455311 0.658863 0.133060 -0.516729
102 0.014967 0.560155 0.325087 -0.202567 -0.349221 -0.731105 0.894428 -0.020087 0.727228 -0.327508
92 0.206680 0.376945 0.303489 -0.179871 -0.237604 -0.654643 0.929659 -0.119969 0.756926 -0.298585
109 0.400596 0.620372 0.387448 -0.413823 -0.395941 -0.867720 0.694284 0.120973 0.562392 -0.230150
97 0.098707 0.563978 0.513312 -0.071276 -0.307006 -0.787199 0.872997 -0.175456 0.795696 -0.218267
66 0.177272 0.478045 0.599583 -0.334515 -0.210891 -0.891733 0.762631 -0.035775 0.773560 -0.199634
36 0.449704 -0.688860 0.441299 0.160835 0.653591 -0.018935 0.395208 0.321474 -0.582484 -0.133410
58 0.315072 0.102020 1.387280 -0.548983 1.336421 0.255402 -0.525750 0.361240 1.010011 -0.185785
86 -0.203805 0.368338 1.324653 -0.532261 0.708173 0.914479 0.231312 -0.130475 -0.019423 0.363605
25 -1.057099 0.654952 -0.705417 -0.357514 0.770415 -0.520481 -0.866632 0.100801 0.551797 0.038635
104 -0.759216 0.689293 -0.583125 -0.328712 0.681344 0.785744 -0.320640 -0.187385 -0.820688 0.379083
34 0.682613 -0.432484 0.568812 0.634402 0.865096 -0.968325 -0.475820 1.024304 -0.199624 -0.606410
69 0.154892 0.340958 0.301079 -0.151803 -0.224770 -0.952218 0.796562 -0.042114 0.821743 -0.293073
112 0.073603 1.213516 0.215870 0.532097 0.301140 0.565705 -0.570321 1.000929 0.351110 -0.325453
43 0.051845 -0.426583 0.592070 -0.517348 1.007675 0.334133 -0.083292 0.247414 0.835644 -0.159917
37 -0.842473 -1.224288 0.841468 0.187201 0.621639 -0.634897 0.261375 -0.465334 0.463310 0.165171
63 -0.199847 -1.011016 0.038467 -0.452125 1.087328 0.171499 0.134168 -0.158184 0.713994 -0.033042
105 0.143116 -0.439967 -0.561349 -0.192582 0.568991 0.089376 1.189270 -0.122642 0.087553 -0.032510
57 0.338278 -0.010179 0.782452 -0.367663 1.190974 0.334617 -0.230019 0.386171 0.983614 -0.133133
113 -1.006220 -0.509870 0.633448 0.488688 0.655205 -0.416427 1.093250 -0.000233 -0.144529 -0.364615
128 -1.162858 0.050117 -0.338647 -0.508928 1.101492 0.852898 -0.028913 0.085641 -0.760611 0.424588
103 -0.724694 1.226309 0.816597 -0.503437 0.292843 0.097464 0.124897 -0.191808 -0.277396 0.648263
24 0.186937 0.006014 -0.875633 0.111670 0.758723 -0.714077 -0.654286 0.406073 -0.053291 1.791723
61 0.644574 -0.485864 0.160069 -0.078592 0.530630 -0.643984 -0.025453 0.741644 -0.718682 0.088124
76 -0.020199 0.682775 0.245843 -0.000171 0.255258 -0.760230 -0.077081 0.215419 -0.982353 0.396501
83 -0.471561 -0.676802 -0.034320 -0.396046 0.699585 -0.630286 0.415296 0.225412 -0.680223 0.082117
8 0.791347 0.231032 -0.607274 0.340423 0.583997 0.371575 0.960597 -0.274664 -0.219824 0.121836
115 0.179677 0.521046 0.488806 0.155630 -0.092954 1.117477 1.144959 0.543136 -0.050648 0.710510
107 -0.163137 0.257747 0.563067 0.369279 -0.126082 0.923417 0.984455 0.511068 -0.170921 0.879160
50 0.853707 -0.581112 0.231535 0.085513 0.430250 -0.532185 0.323140 0.587953 -0.542804 0.038132
46 1.149234 -0.446800 0.298688 0.533438 0.780433 -0.496655 0.247568 0.535990 -0.632563 -0.361104
108 -0.836283 1.029169 -0.371899 -0.489966 0.047339 0.247448 1.173407 -0.278769 0.317581 0.250855
94 -0.957543 0.450483 0.123209 -0.959142 0.034052 0.266312 0.838354 -0.629826 0.127188 0.659435
99 -0.522883 0.548026 0.536676 -0.877599 0.458489 0.179357 0.423488 -0.616467 -0.067387 0.475769
15 0.529250 0.959126 -0.824641 -0.252425 0.654403 -0.219232 -0.582810 -0.085264 0.567941 1.083637
67 0.130425 -0.501396 -0.194161 -0.953186 0.433802 -0.829826 0.294705 0.030152 -0.120420 0.101647
20 0.608999 0.951234 -0.825178 -0.186282 0.666664 -0.193553 -0.585592 -0.088017 0.488919 1.129187
9 0.651987 0.958001 -0.837850 -0.195534 0.731265 -0.125890 -0.570288 -0.083421 0.457017 1.174514
21 0.853256 0.196786 -0.523253 0.657993 0.868732 0.230863 0.670223 -0.637360 -0.240357 0.234561
55 0.876838 -0.646600 0.585415 0.377802 0.773961 -0.776327 0.149271 0.616035 -0.622752 -0.293940
16 0.842931 0.190825 -0.636007 0.614607 0.792001 0.239642 0.647441 -0.664806 -0.261545 0.239065
84 -0.500152 0.781469 -0.145973 -0.700906 0.212972 0.186165 0.507988 -0.095393 -0.167224 0.475103
10064 0.331730 0.052647 0.006670 0.002627 0.278646 -0.070117 0.124961 -0.130138 -0.173884 -0.001943
73 0.009414 -0.215228 -0.662200 0.432429 1.465809 -0.086179 0.342905 0.722076 0.284252 -0.782574
31 -0.529328 1.432406 -0.261220 0.291454 1.378012 -0.379598 -0.323136 -0.039892 -0.019462 0.522236
79 0.249552 -0.277361 0.024879 -0.742776 0.885156 -0.523180 0.774578 -0.306062 -0.368433 0.711474
10260 0.042818 -0.080366 0.049166 -0.222393 0.090786 -0.090667 -0.023993 -0.110050 -0.127324 0.007127
80 0.013155 -0.005224 -0.040683 -1.006855 0.261108 -0.829776 0.296654 0.141874 -0.288402 -0.043259
90 -0.508209 -0.060658 -0.395497 -0.413313 0.020790 -1.102172 0.923980 0.523485 -0.848620 -0.019212
1 0.018322 0.294843 -0.280730 0.184766 1.013150 -1.065679 0.582316 -0.399825 -1.360969 0.510746
29 0.484194 0.129388 -0.681521 0.622703 0.807766 0.341238 0.921430 -0.574502 0.024452 -0.070764
10128 0.328290 -0.039300 0.105314 -0.265369 0.325171 -0.233425 0.351954 -0.393483 -0.099433 0.150606
18 0.835636 0.059151 -0.711190 0.503378 0.646438 0.333217 1.113310 -0.509901 -0.044157 0.143025
2 0.800817 0.094077 -0.579174 0.552905 0.662848 0.363908 1.146350 -0.546804 -0.068075 0.121323
9003 -0.360510 0.139193 0.047936 -0.483288 -0.088290 -0.132310 0.430492 -0.113659 -0.394275 0.023850
33 0.436112 -0.112776 1.131833 -0.265060 1.431077 -0.317468 -0.055060 0.059958 1.260488 0.663678
120 -0.694878 0.834602 0.172318 0.178012 0.251217 0.328515 0.701924 -0.141445 -0.238840 0.410878
114 -0.454103 0.407145 0.294229 -0.951723 0.211945 0.571040 0.893178 -0.210676 0.061641 0.417224
88 -0.343115 -0.347812 0.288214 -0.185416 0.038589 -1.005352 0.482789 0.079953 -0.430516 0.471874
116 -0.516005 0.443533 -0.040248 -0.095786 -0.230515 0.030487 0.429796 0.678843 -1.029355 0.539036
10194 0.103782 -0.037904 0.269955 -0.263188 0.083862 -0.207688 0.066832 -0.122815 0.000911 0.143140
49 0.954684 0.558067 0.445779 -0.527347 0.348263 0.923642 -0.189518 1.130416 0.244038 -0.117066
14 0.714312 0.226327 -0.767421 0.522046 0.825682 0.322041 1.005139 -0.592010 -0.183966 0.055817
68 0.062443 0.327198 -0.111540 0.213806 -0.148201 -0.414795 0.883184 0.302173 -0.599028 -0.279339
123 -0.125715 0.393006 0.199502 -0.605298 0.183458 0.143445 0.625974 -0.237207 -0.176579 0.249086
75 0.244427 -0.152233 0.032753 -0.707520 0.710390 -0.837747 0.749788 -0.513728 -0.920472 0.744072
19 0.407503 0.349521 -0.381641 0.404961 0.550884 -0.357290 0.660487 -0.698190 -0.149580 0.693880
53 1.089979 -0.675282 0.218600 0.069580 0.576266 -0.885671 0.250414 0.745214 -0.509544 -0.179281
4 0.351858 -0.209353 -0.223567 -0.327157 0.886017 -0.655541 0.649500 -0.398581 -0.088645 0.439808
40 0.692258 0.001507 0.911291 -0.446649 1.148920 -0.227357 -0.240570 0.004648 0.911677 0.168784
60 0.691899 -0.165498 0.705354 -0.364290 1.321184 -0.417258 -0.381348 -0.004917 1.009225 0.345697
124 0.151403 0.236007 -0.025388 -0.882067 0.643344 -0.443372 0.289816 0.547514 -0.044823 -0.132302
41 1.173379 0.119089 0.318572 -0.777851 0.527604 0.675363 -0.299358 0.969580 -0.040273 0.258448
100 0.388724 -0.047280 0.415365 -0.659726 0.441939 -0.348957 0.464311 0.282268 -0.193996 -0.017449
17 0.550545 0.491531 -0.557504 -0.304117 0.595542 -0.143088 0.630742 -0.330182 0.054271 0.384395
47 0.961586 0.223377 0.459073 -0.558421 0.538761 0.750392 -0.424498 1.140928 0.252080 0.101752
11521 -0.343185 0.368482 0.085230 -0.652894 -0.056216 -0.259174 0.455622 -0.127605 -0.143237 0.001636
52 1.132825 0.138763 0.391126 -0.549961 0.425599 0.125250 -0.017157 0.840454 0.468275 0.256233
65 0.802163 -0.104189 0.853178 -0.353671 1.300334 -0.111518 -0.132552 -0.049497 1.004084 0.301810
32 0.613357 0.115204 -0.728643 0.616968 0.694665 0.340885 0.917777 -0.655631 -0.099751 0.147064
89 0.243825 -0.124104 0.226643 -0.703824 0.909652 -1.002593 0.715573 -0.614902 -0.483642 0.902486
28 -0.384486 0.408918 -0.838275 0.879735 1.931030 -0.878029 -0.536653 -0.742596 0.896840 0.648591
82 0.192267 -0.425833 -0.103347 -0.910261 0.385166 -1.194185 0.266854 0.097341 -0.273600 0.202725
30 0.276292 0.596079 -0.552143 0.084126 0.663075 0.008119 0.488961 -0.697170 0.205815 0.972355
22 0.786017 0.214909 -0.546931 0.553421 0.730789 0.310441 0.919243 -0.644112 -0.264978 0.299546
98 0.278584 -0.110136 -0.151559 -1.048094 1.015279 -0.299867 1.050370 0.238145 -0.164495 0.278114
44 0.987295 -0.093295 0.344587 -0.667337 0.361153 0.528683 0.110196 1.091937 -0.063264 0.118259
62 0.805732 -0.125351 0.280000 -0.588428 0.352134 0.459286 0.341613 0.904438 -0.024821 0.118570
59 0.927009 -0.546776 0.494438 0.161336 0.600859 -0.934672 0.274546 0.706459 -0.638017 -0.220907
85 -0.427726 -0.809285 0.452719 -0.339861 0.380487 -0.279536 1.201737 0.390788 -0.635571 -0.194227
95 -0.423276 -0.837974 0.487385 -0.394505 0.395137 -0.345603 1.195728 0.366801 -0.657691 -0.304843
35 0.426039 -0.520670 0.559780 -0.457433 0.646483 -0.038616 0.290688 0.541110 -0.392512 -0.146833
127 -1.739920 0.134900 0.268182 1.213511 0.936197 -0.568974 -0.206567 -0.177254 -0.943523 0.228368
11022 0.107327 0.139651 0.311356 -0.472410 0.001011 0.170222 0.198233 -0.183531 0.236864 -0.169868
70 -0.033160 0.621769 -0.387233 -1.007807 0.212391 -0.225411 0.810086 0.464797 -0.036088 -0.223424
51 0.992527 -0.014355 0.338430 -0.390895 0.482955 0.483519 0.067111 0.864872 0.010360 -0.070271
10127 0.702405 -0.005485 0.113665 -0.034006 0.376611 -0.365738 0.264531 -0.676315 0.409489 0.298966
38 0.519030 -0.481234 0.811655 -0.732266 0.991216 -0.259847 0.557468 -0.056314 0.372998 0.610032
10223 0.224941 0.038119 0.023280 0.127881 0.026664 0.255678 0.481158 -0.206554 -0.303360 -0.172331
64 0.595338 -0.180612 0.352007 -0.399769 0.710993 -0.137475 0.003008 0.794424 -0.614885 -0.133209
9002 1.086011 -0.661226 0.809842 -0.399763 0.769904 -0.080850 -0.293173 0.696460 0.101788 0.027591
10003 0.385965 0.250269 -0.973233 0.397749 0.565529 -0.132763 0.098883 -0.537330 -0.037299 0.605561
10363 -0.026112 0.341701 0.060580 -0.147676 -0.304077 -0.587929 -0.133670 -0.111843 0.161599 0.354602
9001 0.375228 0.292072 -1.009492 0.527950 0.602475 -0.058006 0.179004 -0.621606 0.186928 0.715478
39 1.194287 0.307439 0.688275 -0.958385 0.499484 0.718108 -0.141082 1.106291 0.137560 0.295927
42 1.134571 -0.059502 0.354970 -0.616178 0.516554 0.378829 -0.052372 0.828254 0.277842 0.268890
56 1.138416 -0.245466 0.883671 -0.215023 0.768645 -0.487229 0.425275 0.326820 0.000880 0.277624
10373 0.592714 0.029067 0.057528 -0.081287 0.108171 -0.883335 -0.056361 -0.067442 -0.063043 0.137832
10094 0.131700 0.121645 0.181162 0.075402 0.004153 0.293132 0.283503 -0.099432 -0.223259 -0.150330
12137 0.493502 -0.270389 0.418113 -0.190643 -0.077842 -1.090517 0.448252 0.260462 -0.273453 -0.200990
10759 0.942793 -0.401123 0.565049 -0.306655 0.595890 0.013480 -0.237564 0.609477 0.008012 -0.210490
12138 0.292547 -0.222560 0.332508 -0.254181 -0.088466 -1.174534 0.232911 0.359159 -0.243001 -0.254088
11031 0.187854 0.058685 0.476516 -0.371388 0.080359 -0.815676 0.002596 -0.168353 0.552223 0.019240
10206 -0.127066 0.393073 0.107196 -0.245990 -0.084225 0.074077 0.362151 -0.241318 -0.107363 -0.164389
10165 0.564244 -0.330316 0.228948 0.116940 -0.094467 -0.691597 0.353555 0.228166 0.167143 -0.293771
11050 1.012274 -0.601732 0.561558 -0.247273 0.525894 -0.138844 -0.011061 0.450206 -0.055477 -0.150507
12135 0.338313 -0.205759 0.512211 -0.058544 -0.090530 -0.993720 0.173231 0.219435 -0.256977 -0.321900
10166 0.720777 -0.399290 0.365132 0.051753 -0.105795 -0.675250 0.414650 0.304234 0.051969 -0.235265
10392 0.041002 0.160338 -0.397844 -0.364167 -0.154538 0.072908 0.041827 0.093132 0.150913 0.146358
10382 -0.625374 0.497799 0.143061 -0.016078 -0.048991 0.329861 0.167099 -0.271764 -0.309780 0.095675
13 0.429552 0.605634 -0.027748 -0.521181 0.314984 -0.098097 0.552650 -0.449633 0.070373 0.767319
27 0.627359 0.381998 -0.531593 0.162893 0.669824 -0.115941 0.519209 -0.516710 0.205953 0.390653
10090 0.267320 -0.190016 -0.395079 -0.197880 -0.105090 -0.275405 0.864587 0.048487 -0.594189 -0.165484
13131 -0.329774 0.710557 0.672873 -0.531508 -0.071009 0.065107 0.309527 -0.438181 0.285690 -0.096834
11886 -0.000613 0.379341 -0.104080 -0.168077 -0.204417 0.065039 0.542142 0.089180 0.275955 -0.556625
10615 -0.153961 -0.574109 -0.016534 -0.389941 -0.088244 -0.201411 0.308206 0.343026 -0.136516 -0.159010
10007 0.239354 0.001638 -0.648132 -0.114963 0.325117 -0.085803 0.258269 -0.155103 0.030058 0.296953
10596 -0.344302 -0.281682 -0.092987 -0.566362 -0.276687 -0.420468 0.449509 0.206198 -0.431958 0.010844
11506 0.619061 -0.565342 0.261629 -0.771522 0.283809 0.089939 0.104163 0.502386 -0.372182 0.270685
10068 0.378270 -0.189608 -0.368190 0.608366 0.369743 0.555962 0.553919 -0.308644 -0.622409 0.136197
10011 0.388281 0.557080 -0.493133 -0.005069 -0.017758 -0.757737 0.032879 -0.140252 -0.220143 0.440482
101 -0.076567 -0.106182 -0.432269 -0.418948 0.080261 -0.769164 0.462444 0.413603 -0.333997 0.113611
10467 -0.340466 0.468220 0.237069 -0.133325 0.003254 0.090886 -0.021917 0.021730 -0.162719 -0.000664
10262 0.552598 0.247037 0.107533 -0.182148 0.380961 0.571084 -0.298983 0.033941 -0.100441 0.089932
10069 0.643297 0.284234 -0.330775 0.413483 0.266968 -0.393489 0.702813 -0.536577 -0.068789 -0.347056
10079 0.243619 0.133896 -0.284040 0.245925 -0.012830 0.119644 0.676894 -0.661116 -0.128355 0.464233
10130 -0.022312 0.127663 0.181758 -0.309032 -0.226649 -0.675182 0.526251 -0.181676 -0.075612 -0.100473
10300 0.313639 0.088130 0.216811 -0.044978 0.422218 0.274544 0.191283 0.099522 -0.711721 0.069859
10212 0.273623 -0.485355 -0.276518 -0.524316 0.451835 -0.421732 0.251629 0.271546 -0.397113 -0.129428
10155 0.715077 0.283061 0.292584 -0.494208 -0.252359 0.305197 0.059885 0.455801 0.280239 0.287973
10222 0.398363 0.322006 0.133258 0.222280 0.143081 0.008210 0.004381 -0.062151 -0.300966 0.106936
71 -0.577879 0.912639 0.407895 -1.070884 0.239974 0.026814 0.570357 -0.635431 -0.011059 0.669933
12144 1.054937 0.124554 0.614979 -0.603015 -0.079204 0.070837 0.239254 0.787097 0.400563 -0.247848
10195 0.326651 -0.190647 -0.204729 -0.302876 0.493364 -0.276290 0.315265 -0.064742 -0.119707 -0.323351
11076 -0.016513 0.095118 0.426220 -0.470097 0.014150 -0.227983 0.321275 -0.006185 -0.210723 -0.230768
10008 0.199223 -0.067686 0.247904 -0.299882 0.073171 -0.817568 0.466156 -0.313974 0.164245 -0.224834
11 0.500750 0.411164 -0.795857 0.141596 1.420942 -0.507992 0.962271 -0.666064 0.388637 0.958904
10730 0.839249 0.403176 -0.076036 -0.435972 0.159762 0.696580 -0.265427 0.590691 0.153156 0.884694
10030 0.718604 0.249371 -0.213762 0.335228 0.580371 0.134418 0.300727 -0.262059 -0.751437 -0.042049
10252 0.337251 -0.217655 -0.097837 0.220685 -0.009303 0.187752 0.588012 -0.204672 -0.195116 0.022584
10566 -0.285390 -0.156974 -0.016961 -0.463274 -0.044339 -0.907544 0.581300 -0.071686 0.330943 -0.339575
12357 0.116871 0.125806 0.645723 -0.305758 -0.197105 -0.338816 0.454348 -0.009542 0.837092 -0.581533
10102 0.136396 -0.300399 -0.270144 0.110126 -0.028636 0.024333 0.661256 -0.214165 0.581335 -0.292855
11062 0.276273 0.334361 -0.078580 -0.345464 0.053802 -0.130934 0.393226 -0.002790 -0.255253 -0.146747
10547 0.074155 -0.291656 0.304358 -0.270223 -0.198818 -0.793640 0.533812 0.093110 0.319690 -0.180391
10148 0.153995 0.254474 -1.307080 0.014323 -0.042129 0.223039 -0.128393 0.070797 0.034535 0.719578
11699 0.874940 0.327376 0.483427 -0.277613 -0.483662 -0.105353 0.119632 0.544132 0.486904 -0.060720
10729 0.994351 0.315872 -0.058705 -0.530001 0.172808 0.659975 -0.411242 0.769998 0.288324 0.927452
10084 0.186321 -0.079379 -0.659360 0.185828 0.008936 0.481303 0.453072 -0.056275 -0.003667 -0.070927
10101 0.735085 -0.201595 -0.404829 0.442133 0.478615 0.538066 1.133614 -0.502214 -0.414155 0.225644
10081 0.733279 -0.474624 0.000352 0.657578 0.492803 -0.040534 0.279808 0.210777 -0.849221 -0.370800
10089 0.473352 -0.137134 -0.216737 -0.221533 0.038962 -0.194710 0.371123 0.025070 0.279650 -0.230705
12345 -0.208922 0.269349 0.475728 -0.265386 -0.481873 -0.709457 0.613510 0.113775 0.190683 -0.539230
12013 1.313667 -0.139194 0.516473 -0.238806 0.271975 -0.302951 -0.169038 0.877880 -0.380538 -0.186671
10441 0.193001 -0.283347 -0.350128 -0.280595 0.035698 -0.089770 0.334869 0.113530 -0.122222 -0.275212
10126 0.065867 0.478092 -0.526504 0.777302 0.658192 0.678706 0.274018 -0.543303 -0.524850 0.109439
10013 0.441097 0.094393 -0.630727 0.765023 0.648895 0.241758 0.714713 -0.591457 -0.668281 -0.084220
10077 0.616174 -0.124544 -0.599901 -0.372068 0.143077 0.097543 0.682147 0.046377 -0.599195 -0.112773
10292 0.311575 -0.577044 0.714407 -0.345305 1.072636 -0.170961 -0.365792 -0.006600 0.534783 -0.092621
10268 0.257742 -0.580583 -0.470322 0.038522 0.253395 -0.188617 0.276595 0.095980 -0.486300 0.169659
10290 0.357271 0.104363 -0.559970 -0.005486 -0.008217 -0.217584 0.232680 -0.350626 0.281752 -0.028844
10299 -0.078541 -0.195864 0.131596 -0.450349 0.406500 0.435001 0.421238 -0.021260 -0.292897 -0.323785
10973 -0.465638 0.556422 0.225056 -0.573661 0.159302 -0.007122 0.258532 -0.312602 -0.242204 -0.002220
10397 0.177532 0.812051 -0.119720 -0.163387 -0.257681 -0.987147 0.121357 -0.350782 0.572708 0.297080
10565 -0.125755 0.204913 0.001706 -0.025581 0.599024 0.241550 -0.688909 0.037396 -0.207105 0.125601
10656 -0.080494 0.240554 0.204584 -0.062288 -0.487648 0.614674 0.229043 0.488949 0.151554 0.291808
10770 0.203780 -0.142449 -0.431684 -0.730034 0.147901 0.196961 0.208987 0.095502 0.032767 -0.061176
93 0.469414 -0.765151 -0.443170 -0.182817 0.373392 -0.336000 1.061593 0.036032 -0.583924 0.360128
10540 0.030196 0.471069 0.275082 0.186440 -0.241982 -0.874706 0.243768 -0.036249 0.270306 -0.348186
12005 0.962582 -0.286624 0.454360 0.016294 0.066660 -0.732579 0.132012 0.758246 -0.729234 -0.344388
12632 0.089021 0.291894 0.158491 -0.668150 -0.152407 -0.568960 0.725100 -0.258251 0.496655 -0.252155
10047 0.065326 0.746715 -0.272442 0.229518 0.363929 -0.301488 -0.047936 -0.395138 -0.637166 -0.048771
10610 -0.567329 -0.846385 0.324447 -0.045560 0.273659 0.125164 0.354580 -0.032103 -0.530022 -0.032556
11526 -0.084392 0.236344 0.105573 -0.740729 -0.345200 -1.135466 0.345890 -0.085412 0.302041 -0.363449
126 -0.231135 0.646639 -0.109459 0.308113 0.426677 0.316651 0.115911 0.040584 -0.376167 0.423018
10073 0.408568 0.390556 -0.668495 0.092178 0.607187 0.609153 1.161745 -0.827904 -0.228469 0.266188
12133 0.797294 -0.457582 0.197250 0.148400 0.216938 -0.890610 0.205488 0.786348 -0.525051 -0.265403
10121 0.821477 0.315412 -0.295327 0.459626 0.128963 -0.292182 1.103996 -0.891586 0.338018 -0.100952
10303 0.478193 -0.280183 0.065452 -0.079597 -0.319390 -0.116934 0.664927 0.211998 0.233019 -0.102093
12006 1.116937 -0.785487 0.344160 0.072455 0.560088 -0.673812 0.357367 0.686245 -0.650730 -0.081871
10112 0.795761 -0.065865 -0.013481 0.103228 0.910387 0.378042 0.312060 -0.705077 0.128075 0.201492
10680 -0.042710 -0.191603 0.241718 0.184715 -0.358943 0.439359 0.163152 0.188439 -0.419423 0.089602
10486 -0.638049 0.329308 0.166396 0.059739 0.204599 0.134400 -0.404199 -0.095779 -0.482813 0.013302
10203 0.622564 -0.432635 -0.747777 -0.452615 0.255264 -0.211018 0.367482 0.511303 -0.551808 -0.271665
11891 -0.067989 0.274897 -0.174024 -0.524199 -0.149732 0.196414 0.694716 0.042730 0.075001 -0.468283
12141 0.873574 -0.445119 0.277903 0.120903 0.302285 -0.751659 0.276876 0.630358 -0.714612 -0.230960
10319 -0.060818 -0.104799 -0.511740 -0.028026 -0.392527 0.438989 0.708417 0.136741 0.236464 0.091141
10646 -0.285500 -0.313800 0.007575 -0.518219 -0.005398 0.288780 0.083208 0.264380 -0.029586 0.106891
12129 0.897418 -0.173159 0.562962 0.368976 -0.007646 -1.120003 0.364855 0.367792 -0.072601 -0.422034
10133 -0.552528 0.319507 0.340450 -0.055416 0.166112 -0.161846 0.136480 0.145345 -0.640245 -0.190720
11015 -0.160439 0.314939 -0.128399 -0.416176 -0.134123 0.483789 0.426902 -0.012172 -0.395868 -0.278425
10080 0.336145 -0.003319 -0.676467 -0.063620 0.086195 0.776688 0.913943 0.049221 -0.060679 0.047779
12529 0.043706 0.132613 0.650498 -0.600918 -0.129466 -0.450665 0.335013 -0.032864 0.941764 -0.590899
10814 0.247639 0.386725 0.168773 -0.277774 0.102014 -0.042539 -0.285985 0.024517 0.180194 0.130156
10117 0.645869 0.435433 -0.694656 0.639171 0.283606 0.285090 0.838486 -0.468884 -0.144510 -0.223127
10075 0.921801 -0.237586 -0.754053 0.563121 0.816657 0.561253 1.129326 -0.597081 -0.185205 -0.077047
12131 0.841738 -0.373373 0.381122 -0.001584 0.065636 -0.891382 0.228381 0.549903 -0.825974 -0.184238
10113 0.610295 0.305309 -0.607916 0.825212 0.260464 0.125413 0.872326 -0.471185 -0.431463 0.094160
11969 0.639597 0.376682 0.848933 -0.283665 0.145227 -0.906179 0.292912 -0.136200 0.957955 -0.164304
10209 0.332931 0.085206 -0.159577 0.188126 0.496375 -0.025206 -0.030135 -0.230989 -1.082134 0.375073
10116 0.991747 -0.012175 -0.610634 0.520695 0.751444 0.371379 0.790816 -0.421033 -0.427792 0.038787
10229 0.062861 0.225806 0.032662 -0.234453 -0.554553 -0.555296 0.897992 0.075361 0.652285 -0.651822
10263 -0.067932 0.248057 -0.319597 -0.079065 0.226922 0.322514 0.512299 -0.243503 -0.607326 0.025252
11069 -0.081407 0.538080 -0.358148 -0.096522 -0.220247 0.084029 0.067530 0.535432 -0.161085 -0.584395
10324 0.452984 0.224440 -1.196616 0.178431 0.127880 0.049228 0.779612 -0.280330 -0.094798 -0.017643
10974 0.562370 -0.899772 0.482926 0.585420 0.670159 -0.886079 0.028406 0.490445 -0.524170 -0.437710
13379 0.144602 0.384136 0.251880 -0.622885 -0.409637 -1.102435 0.764575 -0.007284 0.430893 -0.482574
10020 -0.026368 -0.169503 -0.586370 -0.305427 0.114931 0.100297 -0.154054 0.138312 -0.171558 0.270603
10217 0.780063 0.196193 0.050067 -0.381667 0.097040 -0.179318 0.593490 0.032825 -0.460716 -0.067165
11442 -0.724331 0.940397 0.172563 0.082515 0.320159 0.125163 -0.445136 0.209185 -0.619936 -0.027045
13307 -0.219812 0.767198 0.641437 -0.108950 -0.734801 -0.531934 0.645561 0.207959 0.159076 -0.629499
10466 -0.497610 0.294962 -0.125405 0.183734 -0.656354 0.039112 0.337796 0.016204 0.291780 0.268398
10312 -0.096638 0.094107 0.077195 -0.115301 0.181190 0.447294 0.206847 0.195583 -0.408951 -0.185242
10964 0.343173 -0.463575 0.234823 -0.222349 0.150697 -0.050037 0.620153 -0.096064 -0.473493 0.234079
13596 -0.613348 0.840919 0.000778 -0.028302 -0.231801 0.343281 0.515321 0.090658 -0.660395 -0.124392
10838 0.357594 -0.422712 0.208289 -0.500084 1.022974 -0.274735 -0.416982 -0.222778 0.489460 0.561861
11030 -0.523335 0.613689 0.068930 -0.997434 0.268798 0.072779 -0.066860 -0.462018 -0.001450 0.879542
10078 1.058972 0.399765 -0.364437 0.368881 0.554688 0.570309 0.736937 -0.160807 -0.302126 -0.252576
10136 1.103856 -0.662432 0.116057 0.167448 0.718264 -0.614027 0.244696 0.576113 -0.722265 -0.214044
10409 0.000900 0.811680 0.175984 -0.107712 0.081149 0.262380 -0.413935 -0.142170 -0.365782 0.383013
10208 -0.112567 -0.051138 -0.116958 -0.362697 0.082267 0.136560 0.488727 -0.182122 -0.795717 -0.147214
10438 -0.535704 0.344341 -0.063216 -0.186104 -0.115217 0.307167 0.005965 0.125430 -0.445535 -0.074080
10107 -0.229986 0.405750 -0.417729 -0.225824 -0.033405 0.186943 0.033876 -0.239089 -0.092362 0.033184
10343 0.884441 0.175859 -0.630749 0.240174 0.910412 0.242806 0.563465 -0.808714 0.005871 0.289247
13295 0.239297 0.675942 0.521106 -0.484855 -0.473377 -0.823705 0.633157 0.122318 0.429148 -0.505173
12898 0.437178 0.609424 0.591262 -0.281220 -0.551783 -0.863910 0.800819 0.204588 0.034448 -0.343134
10782 0.170325 0.525922 -0.422014 -0.051261 0.356302 0.380023 -0.025734 -0.374217 -0.358598 0.598088
13503 -0.194485 0.144402 -0.697235 -0.737898 0.002758 -0.264163 0.287764 0.878218 -0.136631 -0.124590
13643 -0.898403 0.234048 0.346469 0.067255 -0.164765 0.080013 0.498577 -0.001378 -0.684966 -0.365235
12598 0.391541 0.353655 0.436405 -0.256638 -0.335938 -1.064500 0.665766 0.089883 0.160988 -0.448610
10845 0.393746 -0.336219 0.546492 -0.779661 1.085896 -0.729839 -0.386895 -0.116411 0.526004 0.178973
11914 -0.890904 0.966760 0.353077 -0.994162 0.425705 0.128303 0.289819 -0.485246 -0.089462 0.461551
13522 -0.913206 0.720677 0.430042 -1.046879 0.179247 -0.079391 0.526949 -0.477206 -0.107698 0.375464
10999 0.197380 0.623357 0.176074 0.102211 -0.292699 -1.068747 0.775928 -0.230568 0.822623 -0.528110
13395 0.173196 0.316131 0.187834 -0.624835 -0.426860 -1.210284 0.688933 -0.132167 0.555065 -0.353477
12003 0.708874 0.211249 0.998796 -0.080491 0.549345 -0.210189 -0.475052 0.339570 0.590343 -0.130808
12194 0.386673 -0.326387 0.468003 -0.145309 0.055377 -0.344613 0.654002 0.597847 -0.548194 -0.525311
13396 -0.142057 0.291115 0.673308 -0.242571 -0.645296 -0.856945 0.964093 -0.205737 0.372788 -0.264467
12017 0.656776 0.522599 0.584701 0.006027 -0.376732 -1.061799 0.523812 0.246884 0.354018 -0.610169
10082 0.672366 -0.076155 0.097832 0.246974 0.251822 0.577382 1.030479 -0.318096 -0.319027 0.000191
10769 -0.196788 0.838546 0.233277 0.139353 -0.448969 0.294726 0.605262 0.143176 -0.363637 -0.570546
10419 -0.375447 0.644662 0.138148 -0.409424 -0.155264 -0.049880 0.379627 -0.020930 -0.752246 0.286138
13311 0.198800 0.755413 0.495080 -0.225426 -0.568104 -0.864509 0.858656 0.002387 0.485878 -0.506000
10787 0.251138 -0.198869 0.039630 -0.091447 0.001663 -0.349927 -0.611710 -0.033168 0.351942 0.787748
10226 -0.246653 0.504583 0.099766 -0.404587 0.324381 0.057788 -0.207465 -0.223219 -0.599345 0.385012
10227 -0.078619 -0.823579 -0.118437 0.151924 0.327669 0.572592 0.346378 0.025399 -0.086202 -0.039328
10675 -0.536643 0.616212 0.213321 0.067892 -0.490853 0.800836 0.341540 0.178444 0.017510 0.110024
10733 -0.062345 0.284994 0.266705 -0.019398 -0.913059 -0.625971 0.808114 0.045950 0.904902 -0.072513
12456 0.455245 -0.478238 0.257858 -0.498611 0.318091 0.388455 0.024053 0.422880 -0.251660 -0.099565
10660 -0.421202 -0.375235 -0.273700 0.031844 -0.123977 0.583359 0.303564 0.369812 0.233620 -0.280194
12347 -0.078650 0.354251 0.657567 -0.227423 -0.495743 -1.012614 0.712212 -0.238611 0.614035 -0.509502
11988 0.112327 -0.439512 0.355196 -0.268249 0.300465 0.024805 -0.191343 0.400739 0.583258 -0.571958
13198 0.208244 0.179452 0.375761 -0.263215 -0.439064 -1.154744 0.720569 -0.054924 0.288557 -0.353209
13054 0.279476 0.581137 0.415304 -0.512274 -0.276003 -1.007409 0.630032 0.008474 0.757299 -0.591655
10129 0.872438 0.213514 -0.418167 1.034611 0.903654 0.443713 0.708899 -0.697110 -0.514527 -0.147481
10005 0.631290 -0.707507 0.409913 0.341444 0.664467 -1.041560 -0.058010 0.530905 -0.936868 -0.229328
12012 0.732324 -0.729030 0.520205 0.297778 0.318207 -1.008411 0.385384 0.688687 -0.799801 -0.346675
13524 -0.526589 0.868455 0.420665 -1.057183 0.184392 0.209800 0.553681 -0.511833 -0.416703 0.686644
13340 0.172588 0.659701 0.571093 -0.538229 -0.539678 -0.971562 0.887940 -0.036286 0.563365 -0.495262
10468 0.816828 -0.480652 -0.037037 0.229501 0.284591 -1.096729 0.082721 0.975877 -0.893136 -0.102182
12143 -0.411938 -0.178378 0.337713 -0.137086 0.076109 -0.217082 0.146660 0.495054 -1.008890 -0.364800
10088 0.937587 -0.127487 -0.469591 0.273747 0.661159 0.363875 1.001104 -0.369120 0.077857 -0.481898
10304 0.834942 0.187983 0.388633 -0.329218 -0.008895 -0.082714 -0.011594 0.697643 -0.112812 -0.437348
11961 0.284157 -0.357690 1.011476 -0.507169 1.013327 -0.274119 -0.205357 -0.082406 1.065748 0.215335
10364 -0.293572 0.570131 -0.853414 0.318188 0.393770 -0.336973 -0.709765 0.256554 0.563304 1.278631
13362 0.017710 0.543836 0.621401 0.003537 -0.444977 -1.043995 0.718285 -0.222391 0.395464 -0.477557
12388 0.142502 -0.010430 0.226104 -0.602848 -0.244846 -0.700364 0.304564 0.034606 -0.237570 -0.310752
12134 0.491419 -0.322885 0.797671 0.453618 0.331485 -0.347917 -0.305997 0.853448 -1.110016 -0.277557
12619 0.299287 -0.318564 0.081681 -0.585218 0.148485 -1.003911 -0.097605 0.504081 -0.800589 -0.009538
12145 0.690727 -0.225435 0.505814 -0.927125 0.457266 0.443138 -0.488691 1.169345 0.054879 0.039013
10410 -0.155077 0.913470 -0.119353 -0.123750 0.011152 0.194119 -0.471564 -0.237375 -0.132935 0.461615
12007 0.722212 -0.620085 0.229729 0.116030 0.594289 -0.576632 -0.121887 0.788535 -0.950027 -0.212843
13303 0.214193 0.729734 0.475412 -0.281489 -0.647418 -0.883846 0.891992 -0.002781 0.628177 -0.558484
10667 -0.015114 -0.113647 -0.864110 0.198910 0.129046 0.738016 0.782802 0.013722 -0.211157 -0.152853
13523 -0.467643 0.576686 0.269868 -1.219191 0.330772 0.583479 0.844889 -0.580132 -0.059767 0.546191
12286 -0.326868 -0.203586 0.500765 -0.251106 -0.445499 -0.964882 0.804381 -0.197924 0.114074 -0.228898
12130 0.847383 -0.725438 0.346613 0.312396 0.587291 -1.080788 -0.076969 0.896870 -0.814322 -0.412505
13341 -0.191798 0.097933 0.406989 -0.132464 -0.459745 -0.796695 0.939776 0.049845 0.121000 -0.593679
12508 -0.082018 -0.196359 0.765596 0.069065 0.459547 -0.242957 -0.366308 0.410947 -0.154194 -0.462644
13465 -0.372844 -0.062795 -0.032533 -0.006384 -0.342792 0.244025 0.950432 0.686177 -0.492876 -0.491171
10625 0.816244 -0.458986 0.288518 -0.063355 0.203129 0.627214 -0.311718 0.989662 0.276683 0.017286
10106 0.538728 0.372095 -1.049758 -0.119828 0.113055 0.471803 1.078042 -0.059872 0.168799 -0.421988
12294 0.032418 0.259684 0.563614 -0.164380 -0.410786 -1.012204 0.757971 -0.368936 0.886335 -0.509589
10636 -0.349419 -0.139492 0.085695 -0.088535 -0.498952 0.011592 0.362318 0.519308 -0.272698 -0.292447
11945 -0.909907 0.420114 0.119737 -0.004043 0.201130 0.041598 0.016096 0.022375 -0.908074 0.046255
12009 1.200978 -0.710647 0.430258 0.364039 0.607122 -0.743707 0.063025 0.941845 -0.824799 -0.258475
10152 0.324676 0.171225 -0.302436 -0.379857 0.144093 -0.836172 0.592305 -0.046618 -0.366369 0.347466
10967 -0.189054 0.865539 0.099177 0.013307 0.046083 0.480073 -0.128230 0.266991 -0.429647 -0.124479
10224 0.562823 0.075057 0.530745 -0.402122 0.353863 0.138859 0.046921 -0.108288 -0.678380 0.248964
12142 1.223627 -0.082474 0.591331 -0.959806 0.453453 0.777267 -0.133035 1.363316 0.115861 0.220953
13302 0.133882 0.705791 0.571513 -0.260037 -0.611569 -0.927005 0.840240 -0.080957 0.709405 -0.500417
13304 0.158722 0.763671 0.592011 -0.219296 -0.616301 -0.914437 0.830576 -0.084705 0.667568 -0.542385
13309 0.229550 0.792481 0.568481 -0.381163 -0.660476 -0.970999 0.908836 0.006184 0.689693 -0.540286
10388 -0.237023 0.480610 0.132655 0.122880 0.047405 -0.724492 -0.386446 0.647515 -0.636229 -0.221848
11847 0.081035 -0.091153 -0.036853 -0.562827 -0.039948 -0.044119 0.494574 -0.345913 0.324739 -0.189583
13305 0.189637 0.766114 0.584855 -0.327931 -0.676303 -0.853378 0.976919 -0.038402 0.786412 -0.576564
10207 0.410073 0.456373 -0.350519 -0.445274 0.088986 0.733454 0.465874 0.058218 -0.369648 -0.128847
10354 -0.044991 0.417512 -0.993239 0.109731 0.264613 -0.045133 -0.141812 -0.573516 0.103553 0.156130
10261 0.638558 -0.066694 -0.604745 0.887481 0.396359 -0.098247 -0.155412 -0.166916 -0.259663 0.432938
12004 1.124459 -0.753159 0.456492 0.254391 0.575139 -0.748394 0.100383 0.848440 -0.864992 -0.249240
12591 0.510921 -0.286512 0.380736 -0.581549 -0.032602 -0.410392 0.707318 0.367491 -0.283917 -0.198133
11551 -0.833522 0.449297 0.341166 -0.275313 0.164114 0.300697 -0.269328 -0.040993 -0.502605 -0.143845
13372 0.284561 0.622288 0.458678 -0.177814 -0.617996 -0.842106 0.881924 -0.046684 0.659462 -0.475821
10024 0.019323 0.222746 0.472606 -0.769688 0.332412 -0.354905 0.447218 -0.475026 -0.828903 0.511482
12514 0.776337 0.247467 0.173105 -0.420770 0.381435 0.222318 -0.131670 0.680348 0.141661 -0.498885
10749 -0.097556 0.131211 -0.362708 -0.118328 0.372690 0.957847 0.377375 -0.160521 -0.735868 -0.079229
13518 -0.555790 0.625380 0.235809 -1.115650 0.231661 0.530397 0.916396 -0.647689 0.037962 0.614515
10584 0.444484 -0.142117 -0.087913 0.350462 0.159072 0.471557 0.164379 0.189109 -0.373910 0.122853
13339 0.439779 0.753009 0.491161 -0.413723 -0.469367 -0.868979 0.921161 -0.034206 0.726119 -0.415465
13402 0.180300 0.785989 0.619495 -0.394257 -0.572712 -0.894267 0.844403 -0.027927 0.660833 -0.505598
12011 1.145932 -0.842607 0.411683 0.370748 0.605662 -0.813528 -0.030648 0.975838 -0.757992 -0.266215
13392 -0.102405 0.562763 0.493405 -0.256148 -0.490539 -1.198549 0.616315 -0.151996 0.770956 -0.585692
10347 -0.122815 -0.142386 0.039267 -0.520189 0.281806 0.063902 0.578066 -0.089768 -0.518485 -0.053171
12354 0.040093 0.159383 0.548703 -0.116497 -0.511773 -0.923080 0.744264 -0.295931 0.745999 -0.456357
12010 1.185391 -0.789725 0.444010 0.336826 0.596878 -0.789815 0.020725 1.057010 -0.754215 -0.294043
10138 0.631797 -0.059758 0.725843 -1.001217 0.489310 -0.649574 0.054829 0.282278 0.217466 -0.051655
10306 -0.389800 0.053086 -0.201468 0.067702 -0.263563 0.085943 0.380864 -0.160455 -0.326854 0.543994
10076 1.023259 -0.101456 -0.895324 0.794029 1.032798 0.302325 1.193922 -0.792070 -0.290037 0.096076
11904 0.058654 0.577690 0.369137 -0.606841 -0.126229 0.098124 0.047529 0.061118 0.160483 -0.176104
13306 0.167139 0.869324 0.583947 -0.362667 -0.646748 -0.859253 0.844428 -0.019441 0.617640 -0.543952
13380 0.266697 0.477716 0.297660 -0.492167 -0.395727 -1.100343 0.782877 -0.227021 0.746243 -0.466218
11073 0.415835 0.751960 0.435376 -0.103576 -0.383344 -0.912941 0.895968 -0.301347 0.659360 -0.290635
12008 1.121700 -0.757218 0.513237 0.338528 0.603935 -0.787113 -0.022472 0.888419 -0.868234 -0.332523
12650 0.190597 -0.390352 -0.252308 -0.893188 0.378408 -0.616505 -0.124110 0.402472 -0.989919 0.133706
12136 1.235758 -0.758369 0.578378 0.362526 0.637741 -0.714166 0.265393 0.666112 -0.621907 -0.166503
13310 0.094565 0.853699 0.617008 -0.348777 -0.672669 -0.940336 0.870910 -0.040836 0.631585 -0.594651
11959 0.707321 -0.520468 1.069377 -0.631515 1.405604 -0.084633 -0.320806 0.061548 1.127987 0.317110
10070 1.063672 0.127598 -0.904213 0.882545 1.041201 0.478717 1.211667 -0.927412 -0.231498 0.188092
13381 -0.150345 0.594607 0.442445 -0.166884 -0.428241 -1.116116 0.648536 -0.170542 0.755890 -0.670988
12163 -0.098612 0.058112 0.080683 -0.665780 -0.351389 0.158256 0.555953 0.537042 0.134957 -0.579916
12426 1.243910 0.144610 0.578378 -0.831009 0.197804 0.541962 -0.029321 1.086778 0.404037 0.114149
10360 0.055244 0.223453 -1.388512 -0.078533 -0.150669 0.010268 -0.604289 0.652837 0.325190 1.044804
13399 0.167432 0.747153 0.610811 -0.249961 -0.632816 -0.881077 0.923030 -0.071232 0.621405 -0.476296
10369 -0.101633 0.542108 -1.009152 0.144336 0.367837 -0.386460 -0.774046 0.185695 0.375332 1.228774
13308 0.139818 0.730454 0.604458 -0.299638 -0.694416 -0.824032 0.830683 -0.021794 0.634665 -0.456346
13393 0.284067 0.742031 0.445224 -0.310627 -0.521113 -0.910230 0.909141 -0.186950 0.814657 -0.494324
10125 0.835834 -0.428365 -0.976660 0.563610 0.982749 0.380477 0.994261 -0.802553 0.012666 0.052439
10362 0.143505 0.225301 -0.886964 0.279871 0.064239 -0.240174 -0.304648 0.314003 0.303923 1.504433
13336 0.252874 0.760402 0.533405 -0.158793 -0.637728 -0.916936 0.917645 -0.126105 0.862412 -0.488517
10692 -0.277659 -0.077270 -0.101649 -0.097878 0.322497 0.580556 -0.210271 0.561873 -0.291478 -0.230807
13349 0.341193 0.753398 0.478249 -0.207879 -0.530063 -1.046496 0.897781 -0.127314 0.876230 -0.450173
13398 0.400462 0.732381 0.544300 -0.192125 -0.565606 -1.063022 0.914978 -0.103571 0.871527 -0.492686
13407 0.237916 0.740610 0.578335 -0.214954 -0.540590 -0.993063 0.964664 -0.109330 0.915772 -0.556375
10028 0.594903 -0.425460 -0.177358 -0.632610 0.548399 -0.795698 0.048508 0.313072 -1.089313 0.301062
13389 0.381174 0.713639 0.498236 -0.209973 -0.569900 -1.076282 0.914022 -0.072025 0.916439 -0.526759
10662 -0.130890 0.201236 0.114284 -0.299657 -0.539216 -0.516252 0.688557 0.195041 -0.271913 0.071673
13335 0.342092 0.820196 0.474032 -0.276658 -0.643001 -1.023365 0.834479 -0.129840 0.790778 -0.418311
10118 1.010258 0.077397 -0.894233 0.857046 1.010633 0.489454 1.084802 -0.901543 -0.173580 0.089704
10049 0.128320 -0.065096 0.271456 -0.375363 0.415985 0.258988 0.371087 -0.676412 -0.507690 0.513872
13401 0.387952 0.757886 0.469515 -0.242901 -0.625619 -0.980068 0.896980 -0.146112 0.910108 -0.445168
13383 0.367377 0.687436 0.472537 -0.126957 -0.572579 -1.065526 0.904328 -0.107592 0.895108 -0.502739
13313 0.286556 0.781658 0.617311 -0.174018 -0.522984 -1.024459 0.879978 -0.223240 0.854085 -0.517925
12154 0.716267 -0.352267 0.148627 0.142277 0.315986 0.377649 0.251893 0.828524 -0.745057 -0.597252
13567 -0.534666 0.476119 0.265692 0.206642 0.249188 1.039551 0.645019 -0.368713 -0.727716 0.372126
10180 -0.515439 0.517256 0.327744 0.056654 0.131324 0.289132 -0.247332 0.178409 -0.344334 -0.373512
11962 0.532515 -0.688744 1.064975 -0.478510 1.215039 -0.299960 -0.256980 0.206825 0.583677 0.439095
12203 0.057603 -0.195511 0.529110 -0.115524 0.094398 0.177149 0.224695 0.423069 -0.087625 -0.803964
10149 0.813059 -0.075881 -0.279773 -0.385115 0.280464 -0.870629 0.258167 0.015708 -0.293917 0.499892
10287 0.227715 0.264227 -0.486010 0.053034 0.397931 0.300729 0.157807 0.039365 -1.392135 0.346312
118 0.321109 -0.615824 -0.050362 -1.398578 0.694688 -0.983364 0.057444 0.107801 0.122445 0.458521
10135 0.277937 0.377166 -0.475507 -0.313040 0.633429 -0.695998 0.480284 -0.894114 0.297777 0.571264
11872 0.120268 -0.284690 0.992888 -0.042798 1.615637 -0.321114 -0.376685 -0.399590 1.222922 0.308481
13382 0.371654 0.669918 0.563730 -0.164898 -0.528490 -0.939994 0.924278 -0.091212 0.916140 -0.561275
11490 -0.352534 0.801840 0.161702 -0.317239 -0.594619 -0.450801 0.381572 -0.060480 0.590256 -0.206379
13391 0.327116 0.844006 0.517368 -0.273982 -0.522101 -0.999185 0.902964 -0.155237 0.919348 -0.511695
13405 0.251831 0.792939 0.451757 -0.186750 -0.571414 -0.946347 0.828604 -0.152682 0.898281 -0.468221
13390 0.387057 0.816929 0.608878 -0.281782 -0.579961 -0.979552 0.954706 -0.165896 0.766173 -0.485545
13394 0.362623 0.763548 0.551613 -0.184373 -0.594268 -0.997293 0.958558 -0.178905 0.887142 -0.507224
13408 -0.030129 0.715376 0.330277 -0.229187 -0.538167 -0.651859 0.485406 -0.365733 0.509293 -0.433210
13400 0.320688 0.801633 0.514918 -0.216084 -0.529336 -0.953768 0.793947 -0.147468 0.789057 -0.442852
13386 0.273086 0.729241 0.497157 -0.309382 -0.565471 -1.030162 0.796529 -0.128790 0.947200 -0.455146
12140 1.191877 -0.775031 0.571330 0.463061 0.575002 -0.840205 0.062166 0.885234 -0.737956 -0.311158
12424 1.405692 0.056719 0.505577 -0.962901 0.487624 0.844509 -0.175131 1.427286 0.273731 0.268577
13384 0.374818 0.773706 0.409348 -0.301892 -0.566486 -0.912513 0.951086 -0.173244 0.811781 -0.520972
10326 0.011423 0.654536 -0.888861 0.795265 0.552026 0.298214 0.192794 -0.579173 0.055710 -0.128481
13406 0.236544 0.811226 0.582500 -0.317863 -0.455059 -0.884478 0.843872 -0.254226 0.881321 -0.498422
10605 0.193513 0.087091 0.189857 0.383887 0.326201 -0.174566 -0.098640 0.184209 -0.104131 -0.269614
13403 0.330256 0.798285 0.556118 -0.141609 -0.503502 -0.875330 0.767380 -0.140174 0.883650 -0.522133
10361 0.111385 0.434964 -1.028883 0.365844 0.259704 -0.280856 -0.686731 0.233265 0.383692 1.184157
10386 -0.316725 0.318093 -0.337365 0.154592 0.568404 -1.254928 -0.384255 0.380131 -0.639413 -0.021406
12740 0.142763 0.537866 0.158258 -0.606103 -0.193669 -0.912466 0.671696 0.193313 0.651039 -0.539131
13387 0.313536 0.704670 0.519990 -0.306021 -0.546647 -0.975725 0.906946 -0.127520 0.806674 -0.548166
12014 1.136770 -0.646309 0.353836 0.236478 0.539116 -0.823909 0.031289 1.034533 -0.891302 -0.302058
13337 0.397624 0.756938 0.535257 -0.254968 -0.673974 -0.939594 0.892396 -0.024435 0.961770 -0.440654
13558 -0.310898 0.106892 -0.202085 -0.514600 -0.320434 0.022002 0.777844 -0.057566 0.330869 -0.467479
13716 -0.418673 0.191313 -0.578587 -0.154597 -0.038996 0.499071 0.552159 0.778443 -0.647558 -0.573597
10115 0.961805 -0.057221 -0.993952 0.741978 0.963229 0.376777 1.175521 -0.798269 -0.328645 0.183470
10232 0.139270 -0.840611 -0.301552 -0.218631 0.159690 0.020204 0.461039 -0.048737 0.689419 0.102005
10732 0.067853 -1.196254 0.099848 -0.154219 0.810298 -0.355729 0.121039 -0.105444 0.031261 0.826217
13404 0.366692 0.780461 0.583597 -0.236501 -0.582725 -0.994689 0.895930 -0.146973 0.775714 -0.560922
13397 0.312783 0.778390 0.579667 -0.255704 -0.634776 -1.004223 0.901492 -0.081315 0.782710 -0.513160
13521 -0.587444 0.867129 0.512568 -1.209277 0.234043 0.424195 0.678004 -0.591298 -0.051790 0.720929
12152 -0.471737 -0.395688 -0.257586 -0.538670 0.524709 0.860346 0.076047 0.281734 -0.318986 -0.357201
12461 -0.035858 1.040894 0.218026 0.024453 -0.232092 0.401567 -0.130188 0.632487 -0.164420 -0.811862
91 0.194007 0.163154 -0.946788 -0.283723 0.388799 0.020946 0.845168 0.207189 -0.439095 0.018091
11438 -0.389869 0.590704 -0.568397 -0.709383 -0.610727 0.038982 0.067999 0.734680 0.117343 -0.278846
10291 0.582882 0.527171 0.056721 -0.138519 0.668048 0.612911 0.603331 -0.419134 0.506367 -0.151034
10288 0.316321 0.305386 -0.058868 0.344980 0.135782 0.558763 0.564176 -0.095516 -0.338161 -0.646676
13385 0.353468 0.712849 0.414559 -0.267345 -0.532926 -1.079766 0.905070 -0.169336 0.814400 -0.480784
10245 0.774907 0.346279 -1.307595 -0.097596 0.544155 0.238049 -0.095026 -0.039738 -0.091116 0.205217
12698 -0.502072 -0.788785 0.438143 -0.142439 0.244745 -0.251570 0.812463 0.384717 -1.140598 -0.455880
10849 0.079350 -0.061749 0.439810 -0.151641 0.414945 0.087794 -0.039657 -0.022132 -0.231616 0.236881
12801 0.130371 0.658317 0.161192 -0.251956 -0.139515 0.828448 -0.154814 0.750323 -0.404980 -0.287674
12805 -0.316470 0.447518 -0.068547 0.037017 0.279951 0.664363 0.171960 0.051480 -1.012605 -0.396892
10109 0.396953 -0.341786 -0.641880 0.431306 -0.060425 0.194060 1.175214 -0.398290 0.391367 0.364172
13388 0.292956 0.747521 0.533691 -0.217951 -0.515894 -1.082996 0.842891 -0.102010 0.822713 -0.539380
10786 0.566975 -0.100070 -0.850413 0.051275 0.337248 -0.162386 -0.765871 0.351522 -0.117060 1.120293
10244 -0.062071 -0.034569 -0.753391 0.012753 0.403788 0.346052 1.037086 -0.975595 0.090417 0.563657
10571 -0.786155 -0.179112 0.048300 0.259265 -0.400256 0.167694 0.114116 0.466276 0.151211 -0.013704
10760 0.015959 -0.216354 0.301358 -0.651290 0.296233 -0.386082 0.139466 -0.188647 -0.256789 0.087842
10707 -0.498052 -0.349929 -0.326347 -0.091502 -0.374148 0.181008 0.010771 0.811939 -0.050528 0.157425
13409 0.424889 0.715050 0.531252 -0.246638 -0.534058 -1.038729 0.925932 -0.190540 1.040004 -0.458958
12644 0.771238 -0.204542 -0.064048 -0.514720 0.354443 -0.375725 0.500640 0.240820 -1.105646 0.197641
13513 -0.503343 0.576337 -0.277203 -1.099337 -0.664532 -0.013798 0.858216 0.228383 0.313410 -0.129547
12139 1.163411 -0.753794 0.637566 0.530444 0.596020 -0.804336 0.126473 0.798047 -0.713330 -0.390078
13344 -0.046929 0.269141 0.225430 -0.127453 -0.355216 -0.936837 0.724744 0.011587 0.836042 -0.581797
10239 0.655732 0.305179 -0.148998 0.455268 -0.029514 0.359107 1.042964 -0.530043 -0.494823 0.713356
10294 0.826357 -0.364688 -0.791812 0.666019 0.791582 0.471364 0.923915 -0.551134 -0.240314 0.023931
10035 0.352538 0.251747 -0.989076 -0.483741 0.241927 -0.110405 0.199761 0.680431 -0.634254 -0.412026
12132 1.302648 -0.746264 0.561588 0.544874 0.545361 -1.085515 0.108880 0.930181 -0.775019 -0.246214
12425 1.466372 0.127236 0.526622 -0.891672 0.547624 0.973158 -0.252208 1.431537 0.187926 0.206476
13345 0.306583 0.410350 0.397490 -0.193547 -0.341367 -1.138370 0.730702 -0.507397 0.418297 0.054062
10496 0.436005 0.630726 -0.088217 -0.253872 0.310239 0.568968 -0.886088 0.780680 -0.442562 0.245181
13410 0.300086 0.713628 0.533774 -0.200006 -0.527738 -0.960738 0.844784 -0.197093 0.974689 -0.523881
10554 -0.142578 -0.367932 0.201152 -0.210895 0.266663 -0.691599 -0.169599 0.239059 -0.510325 0.202034
14084 0.034324 0.447160 0.493239 -1.008828 -0.215034 0.723346 0.621205 0.322746 -0.267523 0.112103
10377 -0.965727 0.633558 -1.019602 -0.419318 0.092336 0.448800 -0.113668 0.358793 -0.723257 0.316203
10359 0.120032 0.242368 -0.952130 0.137650 0.189268 -0.265832 -0.635476 0.370705 0.447641 1.673437
10655 -0.335266 0.604350 -0.328906 0.012098 -0.451127 -0.027257 0.396729 0.135277 -0.082276 -0.337390
13663 -1.015916 0.772549 0.031881 0.457024 0.614091 0.681893 -0.321818 -0.147447 -0.632280 0.098543
10016 0.791514 0.749475 -0.183043 0.217717 0.274083 -0.954558 0.338780 0.059803 -0.543172 -0.250994
10198 0.446098 -1.112382 -0.435980 -0.210794 0.400245 -0.315468 0.650349 -0.024778 -0.217336 0.001799
10784 0.609357 0.034621 -0.334679 -0.024700 0.672247 0.172795 0.772583 -0.408501 -0.022207 -0.112505
10810 0.612009 1.180508 -0.452563 -0.450057 0.366866 -0.631060 -0.582352 0.028751 0.168216 0.454328
13374 -0.213194 0.973639 0.835930 -0.118678 -0.507720 -0.632429 0.589179 -0.334724 0.854180 -0.245281
10641 -0.562569 -0.414872 0.147860 -0.294253 0.076147 0.485427 0.049846 -0.232121 0.056409 0.612172
10645 -0.522048 -0.141928 -0.317449 -0.342153 -0.895429 0.158543 0.747665 0.458038 0.704661 0.063536
12153 -0.659566 -0.728257 -0.435209 -0.841920 0.080734 0.438998 0.725916 0.647519 -0.269653 -0.420765
12436 0.889139 -0.160037 0.902884 -0.503710 1.122083 -0.414651 -0.565279 0.268575 0.439364 0.047751
13471 -0.337176 0.278208 0.218909 -0.496550 -0.298923 -0.509025 0.690959 -0.258018 0.528760 -0.406694
14008 0.082465 0.235031 -0.250986 -0.737833 -0.397601 0.323522 0.864027 0.536369 0.198998 -0.108235
10616 -0.775735 0.459705 -0.465934 0.461530 0.078879 0.950143 0.475625 -0.079732 -0.349249 0.192597
10799 0.470046 0.849995 -0.274381 -0.388442 0.624701 0.170000 -0.273347 -0.954047 0.258855 1.336881
13230 -0.487175 -0.463490 0.253896 -0.025312 -0.082338 0.090415 0.770712 -0.192001 -0.013042 -0.604211
10807 0.199689 0.472452 -0.816924 0.038203 0.885718 -0.171220 -0.765534 0.247232 0.097414 0.008978
11061 0.298477 -0.029444 -0.342016 -0.425504 0.609489 -0.619207 -0.352408 -0.085728 0.041333 0.142357
10702 -0.406239 -0.599648 0.086014 0.225164 0.317625 -0.043109 0.049726 0.565132 -0.372171 -0.309199
10179 0.728799 0.056456 0.560672 0.082911 0.685679 -0.279488 -0.091575 0.032852 0.100216 -0.287365
12237 0.033695 0.156333 0.283122 0.591295 0.053207 0.639600 0.515911 0.392761 -0.123272 -0.680627
12473 0.138437 0.038693 0.919831 -0.368332 -0.230645 0.568026 0.300074 0.064272 0.500862 0.155445
10785 1.195328 -0.021016 -0.476332 0.715328 0.615993 0.242794 0.556838 -0.096690 -0.586334 -0.279209
10657 -0.730924 -0.409937 0.101645 0.024312 -0.207816 -0.052749 0.159687 0.296919 -0.036434 0.381568
12080 0.718083 -0.400333 0.836803 -0.435920 1.247602 -0.002598 -0.564306 0.597045 0.251229 -0.329717
10286 0.059726 0.224184 -0.239180 0.356829 0.118852 0.249268 0.657673 -0.432103 -0.131861 -0.395765
10752 -0.104840 0.595566 0.180383 -0.181485 -0.108396 -0.134653 0.437292 0.330722 -0.401467 -0.444085
10453 -0.364310 0.275832 -0.765482 -0.149296 -0.763563 -0.441612 0.821487 0.621182 0.584889 -0.058713
12409 1.209417 0.246453 0.882202 -0.873245 0.856973 0.949129 -0.521387 1.091083 0.495673 0.005576
10618 0.202372 0.660517 0.175539 0.677918 -0.308033 -1.064171 0.458748 0.224991 -0.102027 -0.164831
11171 -0.000879 -0.095431 0.099103 0.322999 -0.174380 0.175055 -0.139476 0.412108 0.270552 0.458562
10134 0.688374 0.312407 -0.613151 -0.194347 1.037819 -0.389343 0.734649 -0.918157 0.314926 0.980609
13552 -0.124243 0.612686 0.928184 0.158965 -0.447136 0.292434 0.639313 0.071652 -0.165085 -0.614332
10484 -0.111035 -0.086122 -0.373881 0.012664 0.179596 -1.127880 -0.394423 -0.075424 -0.067506 0.807506
10820 0.596879 0.244384 -0.101048 -0.556553 1.169864 0.101857 -1.143348 0.010471 0.768032 0.854093
11451 -0.601698 0.621514 -0.916476 -0.063772 0.229018 0.213630 -0.299290 0.286527 -0.150286 -0.387122
10567 -0.378244 0.361758 0.359173 -0.289356 -0.253708 -0.525103 -0.083026 -0.006950 0.060185 0.164980
11025 0.542307 0.545685 -0.309218 0.463187 0.003873 -0.101133 0.838218 -0.689829 -0.366483 0.250053
10548 -0.041668 0.196900 -0.047871 0.082275 0.229351 -0.616535 0.085520 0.288771 -1.170552 0.529182
10720 0.938188 -0.305368 -0.940304 0.706308 0.473981 0.314929 1.124103 -0.438605 -0.277858 0.445618
12233 0.234001 0.013439 0.754797 -0.180598 0.119437 0.756634 0.275858 0.279117 0.134738 -0.221961
10642 -0.321587 -0.719667 -0.158467 0.528290 -0.252504 0.728403 0.512331 0.561983 0.051387 0.025241
10704 -0.418982 -0.275725 0.207949 -0.161671 0.020011 0.153998 0.383229 -0.380137 0.006452 0.063539
10335 0.719364 0.583278 -0.577915 0.406735 0.259428 0.430456 0.418751 0.308160 -0.364081 -0.557557
10124 0.177662 0.238238 -0.460270 0.511968 0.878939 1.029883 0.575997 -0.801818 -0.714186 0.470143
11093 -0.164898 -0.139297 0.440028 -0.076744 -0.076293 -0.212610 1.311103 -0.060405 -0.653748 -0.003538
10092 1.024279 -0.322036 -0.375936 -0.104754 0.721745 0.586087 0.632283 -0.114467 -0.353182 -0.160948
11049 0.313493 -0.457855 -0.308858 0.382188 0.544911 0.512968 0.262809 -0.445414 -1.008973 0.005101
10249 0.026299 0.055385 -1.005981 0.345841 0.734185 0.077813 0.362685 -0.524070 -0.216486 -0.078920
11052 0.367385 0.039054 -0.995743 -0.432394 -0.063488 0.408809 0.531036 0.351453 -0.370479 -0.352100
11021 0.159756 0.831645 0.773847 -0.331667 0.147885 0.628814 0.088698 -0.126038 0.284160 0.280552
13239 -0.538056 0.171304 0.121503 0.074750 0.011622 0.779707 0.199458 0.219441 0.214299 -0.776514
10370 0.633183 -0.543091 -0.025085 -0.061625 0.471947 -0.517511 0.398455 0.179681 -0.596121 0.165359
11774 -0.913386 0.700647 0.058971 0.735547 -0.211022 0.115847 -0.184353 -0.288833 -0.262385 0.537589
10437 0.095299 1.056810 -0.390461 -0.018540 0.278518 0.437582 -0.503342 -0.030611 0.073148 1.525218
10338 0.742278 0.661601 -0.685456 0.240861 0.317993 0.362698 0.279134 -0.041689 -0.144431 -0.682413
12689 -0.312385 0.474623 0.625663 -0.252047 -0.337377 0.557299 0.495694 0.518079 -0.717005 0.521168
10783 1.044910 -0.026007 -0.865745 0.957857 1.144172 0.448635 0.845653 -0.867156 -0.329421 0.124979
12476 -0.972273 -0.128743 0.192986 -0.380165 0.831869 0.943906 -0.719634 0.081353 -0.468200 -0.190007
13463 -0.605096 -0.047504 -0.124747 -0.302676 -0.345720 0.379646 0.800027 0.611330 -0.491931 -0.227914
13820 -0.985072 0.031790 -0.421753 -0.486264 -0.105966 0.239773 0.373631 0.995034 -0.241348 -1.135127
10408 0.190984 0.929303 -0.943627 0.040744 0.404465 -0.394209 -0.928280 0.270517 -0.250918 1.274809
10984 -0.900564 0.876737 -0.207723 -0.123218 0.650277 -0.652250 -0.549000 0.124915 -0.030038 0.066906
11537 -0.990661 1.054426 -0.271086 -1.276677 0.229074 0.007646 0.265239 -0.316027 0.094887 0.453852
14132 -0.777978 0.039938 -0.480719 0.038247 -0.333522 0.969473 1.066118 0.291756 -0.156751 -0.322344
10611 -0.212863 -0.241785 0.168309 0.130444 0.187805 0.713787 0.398750 -0.168646 0.410249 -0.387370
10038 0.288144 -0.377650 0.368749 0.222829 0.529821 -1.131351 0.071831 -0.191495 -0.438573 -0.317190
13377 0.147153 0.662917 0.527479 -0.107022 -0.563623 -0.983689 0.930524 -0.182462 1.222500 -0.471325
12 1.224126 0.217854 -0.533356 0.784584 0.918975 0.118304 0.484342 0.173681 0.332330 0.350309
10105 0.765895 -0.078999 -0.505838 -0.059602 0.471564 0.022296 1.412780 -0.704351 0.002513 0.096505
10661 -0.401040 -0.391687 -0.162402 0.060885 -0.622314 0.628309 0.883801 0.307196 -0.344989 -0.076161
13024 0.567794 0.316376 0.572274 0.080187 -0.347283 -1.086468 0.755546 -0.074573 0.745431 -0.589460
12241 0.043485 -0.293414 0.875017 -0.352232 0.248330 0.298130 0.373468 -0.102569 -0.243214 -0.135878
11487 -0.613640 0.308026 -0.201850 -0.081070 -0.147167 0.110260 0.111826 0.189892 -0.323813 -0.360912
12228 0.225335 0.117265 0.469181 -0.503862 0.235178 0.182240 -0.306556 0.312377 -0.426292 -0.279581
13776 -0.163630 0.312583 -0.683403 -0.510302 -0.490237 0.744065 0.760399 0.975119 -0.130926 -0.724399
12600 0.667410 -0.324993 -0.085182 -0.177992 0.149195 -0.062397 0.424033 0.701854 -0.942366 0.243143
10961 -0.822723 -0.633294 -0.370280 0.206242 0.758051 -0.549293 0.350918 -0.112594 -0.562573 -0.488312
12310 -0.340788 -0.927577 -0.019033 -0.714676 0.523719 -1.409827 -0.136679 -0.005081 -0.450225 0.018693
10174 0.626690 0.391221 0.544028 -0.216537 0.080805 -0.239484 0.269089 -0.150652 0.357849 -0.464023
13881 -0.542698 0.887838 0.661886 -0.216374 -0.163090 0.346259 0.165453 0.344583 -1.246382 0.779666
10754 0.583818 0.560046 -0.121515 0.365812 0.229814 0.870472 0.413052 0.508254 -0.378229 -0.771406
10965 0.219335 0.500616 -0.238807 -0.053763 0.824319 -0.531541 -0.055654 0.006240 -0.813788 0.316515
10018 0.569604 -0.555747 -0.016045 -0.357480 0.649378 -0.156181 0.361630 0.073742 -0.784418 0.041717
12411 -0.043609 0.591001 -0.043800 -1.339366 -0.501658 0.409167 0.380992 0.766507 0.252218 -0.099017
10022 0.614869 0.573204 -0.608116 0.384765 1.053947 -0.212787 0.277492 -0.511317 -0.911879 0.140591
10422 0.100904 0.317315 -0.657726 -0.568127 -0.112691 -0.603441 -0.115076 0.938662 -0.481121 0.105091
13452 -0.149300 0.236539 -0.445642 -0.809865 -0.609153 0.396887 1.020990 0.574781 0.055947 -0.296456
13756 0.066760 0.309754 -0.444642 -0.619716 0.502084 -0.002367 0.345515 -0.394163 -0.776411 0.189499
10543 -0.058353 1.037971 0.180461 0.113968 -0.610863 -0.748663 0.260137 0.218373 -0.387514 -0.109547
11876 -0.105856 0.150067 -1.225965 -0.454193 0.155315 0.902628 0.917851 -0.031082 0.281357 -0.302590
10253 0.562505 -0.054886 -1.053448 -0.011544 0.134774 0.180913 1.089799 -0.068430 0.280467 -0.583119
12315 0.304284 -0.388802 1.153123 -0.562894 0.283520 0.152189 -0.359053 0.320007 0.345439 -0.029696
12454 0.233663 0.709949 0.714964 -1.141024 -0.130683 0.245339 0.417013 -0.420693 0.167832 0.279560
10963 -0.245981 0.953080 -0.137852 0.287556 0.450695 0.131205 -0.251545 0.229366 -0.451997 -0.290472
12421 1.262767 0.643299 0.525441 -0.690311 0.394899 1.159811 -0.566597 1.296012 0.356893 0.039226
12110 0.406207 -0.191059 1.127576 -0.412867 0.746302 -0.123591 -0.446808 0.468008 0.590051 -0.532418
10009 0.064858 0.213890 0.613207 0.342185 -0.071060 -0.077939 0.381050 0.232029 -1.256622 0.272305
10348 0.892553 -0.253970 -0.272789 0.115060 0.536662 0.017372 0.620678 -0.145082 -0.384537 -0.266223
12282 -1.315808 0.094885 0.625278 0.242082 0.114796 0.332335 -0.167119 0.318127 -0.416360 -0.554539
13371 0.053811 0.642665 0.473123 -0.123688 -0.491581 -0.914358 0.921083 -0.294576 1.068077 -0.450410
12054 -0.488235 -0.327745 -0.406769 -0.215075 0.008426 -0.038636 -0.247577 1.230441 0.199608 -0.935166
12481 -0.462843 -0.036620 0.216507 -1.124579 0.573696 0.561636 0.463248 -0.460409 0.416657 0.216098
10966 -0.822419 0.893823 -0.342777 -0.417303 0.535866 0.234582 0.408570 -0.453528 -0.191347 0.077859
14307 -0.985606 0.799122 0.589591 -0.583018 -0.264529 0.448937 0.308309 0.100684 -0.564614 0.157617
10196 0.614852 0.095744 -0.325355 -0.316809 0.567669 0.173443 0.380047 0.448398 -0.507743 -0.684167
10738 0.940965 -0.060209 -1.054232 -0.461184 0.205301 1.004510 0.399517 0.601002 0.244448 -0.113063
10145 1.177427 0.029240 -0.738319 0.402090 0.921028 0.155585 1.029625 -1.024498 -0.162686 0.435635
10627 0.573344 0.217803 -0.533922 -0.172028 0.156497 -0.230952 -0.179120 -0.060605 0.333573 0.764365
10709 -1.022706 -0.849568 0.456913 0.874711 0.225183 0.490408 0.476828 -0.110872 0.404401 0.116719
10819 0.513542 0.275735 -0.372091 -0.187008 1.074239 -0.125571 -0.821783 -0.400279 0.820905 0.416712
12720 0.529939 0.493833 0.534843 -0.533109 -0.318451 -0.782601 0.658944 0.053861 0.403283 -0.488670
10246 0.090116 -0.231582 -1.019751 -0.450801 0.584023 0.678004 0.683498 0.011628 0.073766 -0.237318
13707 -0.186599 1.145383 -0.156709 -0.128026 -0.085375 0.443132 0.425721 0.071525 0.328220 -0.628496
13347 0.273470 0.691199 0.523127 -0.101161 -0.499282 -0.942263 0.947833 -0.238423 1.083855 -0.472661
13438 -0.378880 -0.331645 -0.088453 -1.123582 0.037068 0.625421 0.203218 0.273571 -0.065573 0.191838
13729 -0.065229 0.406991 0.153486 -0.448323 -0.226766 0.331820 1.205312 -0.352894 -0.287172 -0.339339
13480 -0.080561 -0.025599 -0.080090 -0.674383 -0.070017 -1.315633 0.984934 -0.026643 -0.090146 -0.088918
13346 0.158901 0.579797 0.506904 -0.221737 -0.503538 -1.013111 0.982630 -0.184898 1.159403 -0.533292
12248 0.109519 0.227978 0.683104 -0.203245 -0.100963 0.334405 0.582951 0.231271 0.027419 -0.580239
12542 0.137421 -0.537272 0.064448 -1.081315 0.786021 0.650406 -0.336906 0.946864 0.776150 -0.573455
13375 0.117310 0.672886 0.542517 -0.114324 -0.560845 -0.865191 0.962569 -0.124261 1.103554 -0.517211
10248 1.065695 -0.132185 -0.202155 0.455165 1.380427 0.822186 0.326630 -0.616138 0.221359 -0.236873
10143 0.476399 -0.335411 -0.845995 -0.506225 0.232642 -0.195322 0.705381 0.199590 0.032138 -0.474330
10389 0.379650 0.580247 -1.223084 0.109920 1.022578 -0.423794 -0.922985 0.222718 0.265525 1.044782
11470 -0.761907 0.811671 -0.186113 -0.126115 0.084304 1.050762 -0.303910 0.067131 -0.200374 0.205510
12470 0.794542 -0.040186 0.967907 -0.739390 0.506308 0.320716 -0.195255 0.570025 0.930197 -0.216210
13370 0.131343 0.608807 0.631357 -0.106519 -0.498201 -0.934162 0.949084 -0.165852 1.111146 -0.494442
12949 -0.233017 0.887618 0.768043 -0.618478 -0.413964 0.668150 0.388110 0.105449 -0.020449 0.215170
11733 0.275065 -0.459163 0.227813 0.824531 0.091454 -0.335228 -0.212156 0.426384 -1.170092 0.337361
13376 0.145258 0.676485 0.540666 -0.118539 -0.518322 -0.874260 1.052363 -0.217987 1.154937 -0.528067
11060 0.705832 0.621108 -0.389625 -0.232481 0.255116 -0.549859 0.666492 -0.833332 0.507576 0.437373
13342 0.142329 0.648311 0.514847 -0.139154 -0.520608 -0.858018 0.832587 -0.174466 1.141716 -0.508013
13343 0.211521 0.660294 0.571187 -0.230987 -0.535281 -0.981538 0.966249 -0.185175 1.259876 -0.488619
10341 0.615666 -0.396094 -0.065222 -0.517997 0.171610 0.182240 0.726210 -0.089427 -0.049963 -0.155431
12278 -0.133246 -0.796459 0.564232 0.077590 0.464182 -0.755624 0.518217 0.033260 -0.727306 -0.227080
13378 0.099157 0.602671 0.400456 -0.119438 -0.487397 -0.942074 1.001227 -0.284149 1.044261 -0.472673
11968 -0.010104 -0.009644 1.357610 -0.024508 1.136936 0.070056 -0.736317 0.159007 0.879145 -0.071817
12252 -0.175466 -0.554303 0.403014 0.172165 0.234584 0.184261 0.236837 0.101878 -0.921162 -0.263183
13369 0.238116 0.657951 0.472622 -0.144941 -0.442400 -1.135662 0.986680 -0.281871 1.208258 -0.475489
10257 0.602651 0.529416 -0.278460 0.573569 0.257694 0.020061 0.614563 -0.842935 -0.361111 0.003874
14005 -0.239208 0.685757 0.711509 0.073861 -0.702498 -0.608364 0.603276 0.155921 0.640595 -0.820922
10649 -0.051459 -1.241356 -0.153940 -0.142086 0.113385 -0.378712 0.466439 0.343280 -0.281941 0.876520
10131 0.851796 -0.518434 0.602256 -0.669989 0.812039 -0.757898 0.246480 0.129412 0.485388 -0.157760
10259 0.679806 0.200475 -0.834707 0.158661 0.006438 0.261895 0.953895 -0.171859 -0.768793 -0.168587
10429 -0.150037 -0.521796 -0.064971 1.097296 0.148604 -0.806032 -0.462479 0.194591 0.255696 0.015309
14369 -0.149258 0.704299 0.408100 -0.268305 0.026633 1.203924 -0.344445 0.184063 -0.754508 0.381186
10072 0.810770 -0.551635 -1.308352 -0.115855 0.318287 0.435425 1.027688 0.369814 -0.113508 -0.485130
10083 0.339124 -0.223265 -0.951060 -0.271138 0.006322 0.082067 1.312654 -0.017791 0.394422 -0.362226
10210 0.440429 -0.436031 -0.379823 -0.655361 -0.127475 0.560825 1.074533 0.446235 0.464574 -0.093757
10320 0.739817 0.446534 -0.482057 0.560970 0.387152 0.015346 1.280868 -0.872121 -0.121065 0.083869
12277 -0.630421 -1.263285 0.472860 -0.403335 0.906369 -0.450901 0.152374 -0.439743 0.488215 -0.107557
10032 -0.033653 -0.161177 -0.274458 0.232711 0.268840 0.057123 0.154496 -0.002703 -0.137210 0.136478
13368 0.176960 0.656545 0.469112 -0.207865 -0.550973 -0.954634 0.953282 -0.127476 1.203872 -0.429592
10426 0.180116 -0.188434 -0.499920 -0.028298 0.435916 -0.566062 0.260762 0.154021 -0.800148 0.002683
10631 -0.210512 0.149053 0.082716 0.140422 0.302275 1.396005 -0.232800 0.120687 -0.284026 0.263342
13312 0.243690 0.692298 0.527163 -0.080966 -0.550202 -0.933696 0.947123 -0.189611 1.175444 -0.414758
13373 0.092340 0.546926 0.464080 -0.137213 -0.462708 -0.985440 0.969524 -0.216144 1.215692 -0.499232
13734 0.202375 0.528379 -0.739509 -0.798487 -0.557106 0.021234 0.702152 0.605951 0.352997 -0.950633
13800 -0.509240 -0.116577 -0.415331 0.359414 0.193191 0.513741 1.404828 0.006082 -0.037771 -1.031097
10701 -0.335896 -0.229820 0.325409 0.041944 -0.799776 0.665395 0.920029 0.619798 0.023980 0.869801
13846 -0.177817 -0.246798 0.156501 -0.394581 0.562901 -0.677848 0.705969 -0.785204 -1.241636 0.598591
10264 0.449405 -0.004321 -0.099408 -0.373426 0.214998 -0.098839 0.564093 0.442319 -1.014144 -0.531470
10345 0.266232 0.043951 -0.390049 -0.012484 0.155419 0.215382 0.551021 -0.528200 -0.598731 -0.363702
10521 -0.435702 0.112775 0.453391 0.112379 -0.010217 -0.219903 -0.368218 0.057139 0.621211 1.360878
13555 -0.674657 -0.030107 -0.195867 0.288052 -0.178221 0.576162 0.452900 0.801906 0.250281 -1.168378
10381 -0.006414 0.501637 -1.246233 -0.430643 -0.347550 0.621552 0.504844 0.849420 -0.300876 -0.171560
11963 1.097130 -0.105667 1.039284 -0.561011 1.337200 -0.228389 -0.298907 0.091136 1.356426 0.571878
14234 -1.268812 0.033400 -0.617991 -0.830193 -0.060351 0.951220 0.448137 0.577565 -0.184975 -0.335971
12480 -0.173210 -0.961229 0.251680 -0.873412 0.865726 -0.439549 -0.465029 0.373608 0.042834 -0.204283
13329 -1.096225 0.522999 0.074404 -0.336912 0.089284 -0.146841 -0.298495 -0.088430 -0.433378 -0.207297
10970 0.309719 -0.692573 -0.492613 1.059621 0.574002 0.061816 0.072238 0.124403 0.235518 -0.296317
11896 0.000772 -0.574352 -0.334594 0.027148 0.606671 0.667880 0.671869 -0.430202 0.203533 -0.649521
10775 0.794487 0.609787 -0.119604 -0.708793 0.064599 0.728752 0.566413 0.053401 -0.148852 0.007576
13348 0.193213 0.810867 0.544548 -0.275143 -0.545928 -0.993961 0.932742 -0.156317 1.119551 -0.435591
11469 -0.806959 0.898921 0.499082 -0.696871 -0.056467 0.258448 -0.344150 -0.213562 -0.316576 0.554647
12058 0.028076 0.048876 0.500815 -0.288152 0.483137 -0.772296 -0.379924 0.365250 -0.681748 -0.258218
10801 0.179973 0.601467 -0.900925 -0.279456 0.863103 -0.732762 -0.652160 -0.329353 0.299327 1.300084
10939 0.462109 0.168728 0.747009 -0.088857 0.588774 -0.765041 -0.203261 0.428016 -0.234695 -0.577838
10653 -0.946921 0.116020 -0.134192 0.218384 -0.525244 -0.053178 0.136125 0.617470 0.601528 0.043224
11967 0.751198 -0.115816 1.200828 -0.524461 1.657593 -0.189331 -0.384751 -0.195192 1.596688 0.443096
14910 -0.683764 0.345894 0.275094 -0.331062 0.319272 0.086019 0.348980 -0.001810 -0.642821 -0.160878
11966 0.636860 -0.106542 1.212710 -0.345194 1.535146 -0.170395 -0.411601 -0.196530 1.599161 0.429316
10330 -0.016227 0.183376 -1.040613 0.195507 0.321413 0.886160 0.637179 -0.287679 -0.432867 0.635050
11942 -1.187418 0.258920 0.656188 0.009767 0.660516 0.515318 -0.380086 -0.287336 -0.650553 0.478605
12263 0.812578 -0.098793 0.770902 -0.504195 0.586441 0.869062 -0.254265 1.040102 -0.656907 0.347956
10421 -0.591353 1.027173 -0.632631 -0.348565 -0.153854 0.006074 -0.133316 0.419656 -0.217235 0.254236
11338 -0.717355 0.300132 0.362610 -0.011041 -0.122909 0.372336 -0.050607 -0.296636 -0.319742 0.605382
10023 0.339255 -0.140239 -0.131905 0.316395 0.118632 0.430521 1.351291 -0.104304 -0.834882 0.831473
10439 0.068304 -0.155410 -0.537647 -0.499524 0.646113 -0.607116 -0.047534 -0.006957 -0.747132 0.332608
11449 -0.372894 0.824874 -0.537425 -0.937728 -0.168551 -1.049402 0.184058 -0.022467 0.037737 -0.296983
12755 1.102041 -0.615776 0.144677 -0.059639 0.122999 0.138889 0.465102 0.980751 -0.994929 0.051640
14492 -0.073778 0.270529 0.283439 0.247390 -0.295997 1.173074 1.074815 0.158111 -0.574702 0.142849
10552 -0.078605 0.720046 0.462080 0.461903 -0.325066 -0.810278 -0.037690 0.582788 -0.341711 -0.310298
10861 0.324570 0.382056 0.425612 -0.219778 0.385038 -0.372522 0.027942 -0.118057 -0.283173 0.081808
12596 0.738661 0.004707 -0.071591 -1.247311 0.497803 -0.096898 0.282483 1.417679 -0.247360 -0.090372
10399 0.130243 1.231144 -1.055083 -0.579569 0.346419 -0.205101 -0.465902 0.023437 0.375987 1.348018
12903 -0.019340 0.682887 0.648502 -0.285188 -0.263259 -0.272832 0.136510 0.852110 -1.458797 0.043254
13799 -0.679284 0.187628 -0.104765 0.311984 -0.016422 0.085349 0.793707 0.100917 -0.286040 -0.884403
10339 0.548871 -0.395879 -1.052987 0.811328 0.216439 0.552702 0.888850 -0.351802 0.179834 0.570831
12631 0.417383 0.047565 0.006177 -0.416616 0.012159 -0.931563 0.459317 0.017613 -0.081707 -0.140230
12744 0.036906 0.153010 0.589940 -0.058125 0.298892 0.060796 -0.145197 0.467172 -1.339689 0.221566
10968 -0.735259 -0.097468 -0.342044 0.711002 0.982320 -0.376300 0.270350 0.242622 0.293421 -1.217111
13148 0.029105 -0.108599 0.314456 -1.030205 0.700123 -0.384720 0.321123 -0.766619 0.054038 0.614431
10711 -1.056583 0.350137 -0.140790 0.717097 0.226880 1.027767 0.010462 0.178565 -0.758980 -0.199406
10833 0.884308 0.572188 -0.306115 -0.429738 0.963863 0.030772 -1.161479 0.006762 0.602779 1.087212
10123 0.497246 0.030275 -0.268864 0.833465 0.569032 0.120359 0.290256 -0.245693 -0.770235 -0.306119
12526 0.473893 -0.271783 0.653270 -1.059871 0.447884 -0.013092 0.044149 0.839833 -0.132461 -0.132479
12609 0.492640 0.202978 0.534572 -1.325195 0.435175 0.017152 0.261701 0.412007 -0.282606 0.277246
10501 -0.353655 0.967273 -0.042956 0.108729 -0.362025 -0.660820 0.178376 0.770728 -0.517194 -0.156512
13749 -0.181256 0.719541 0.533087 -0.501807 0.000063 1.074793 0.363002 -0.074560 -0.397530 0.085089
10396 0.504561 1.494129 -0.727314 0.170884 0.465771 -0.173174 -1.079561 0.311755 0.417556 0.915251
12218 0.334734 0.320968 -0.209424 -0.233110 0.204428 0.668524 0.556338 0.337434 -0.066720 -0.659108
12265 0.027532 -0.604744 -0.166217 -0.933917 0.585610 -0.535694 -0.114106 -0.066367 -0.932114 0.065524
12496 -0.356881 -0.591449 -0.180360 -1.095678 0.699259 0.150817 0.424023 -0.404288 0.731427 0.141259
12861 0.516396 -0.328018 0.237363 -0.984494 0.653895 -0.957274 -0.179337 0.278792 -0.358052 -0.027123
13246 -0.137371 -1.088119 0.544575 -0.519623 0.238355 0.692442 1.095612 0.264801 -0.466146 0.082352
10273 0.918783 0.248941 -0.304568 0.776329 0.329354 -0.281597 0.494994 -0.490510 -0.182063 -0.455555
10318 -0.325575 -0.184379 0.057527 0.206304 0.360950 0.508129 0.155560 0.238569 -1.053699 -0.047392
10445 -0.086358 0.373735 -0.014622 0.130399 -0.267042 -0.191434 0.220299 0.216369 -0.940960 -0.053941
12653 0.347284 0.511118 0.359875 -0.633499 -0.498219 -0.890476 0.612406 0.348297 -0.087724 -0.604893
13903 0.010724 0.250140 -0.613622 -1.056198 -0.614659 -0.254884 0.823215 0.913770 -0.149816 -0.260372
10142 0.126953 -0.009910 -0.822666 -1.059385 -0.067467 -0.002138 0.645878 0.422212 -0.010637 -0.245016
10633 -0.273165 -0.325927 -0.740744 -0.320620 -0.807074 0.190250 0.758862 0.831763 0.710810 0.153972
10815 0.318398 0.589809 -1.746491 -1.027279 0.274434 0.391711 -0.420551 0.594631 0.663184 0.610301
12580 0.268947 -0.938385 0.784645 -0.843904 0.395254 0.414150 0.683854 0.851232 -0.468103 -0.186110
10110 0.589126 0.454632 0.194258 0.244775 0.704336 1.332545 0.686058 -0.622513 -0.242780 0.482416
11457 -0.124370 0.329174 0.796460 -0.396267 1.237654 -0.045480 -0.823964 -0.278439 1.351825 0.149102
13462 0.227679 0.421775 -0.065388 -0.319512 0.010195 -0.498941 0.610890 0.570730 -0.166427 -0.423951
13589 -0.918847 0.832860 0.917223 -0.032365 0.200343 0.622999 0.174306 0.096862 -0.936073 -0.471489
11503 -0.951027 1.093746 0.239590 -0.262605 -0.387498 -0.424696 -0.252010 0.304540 -0.406753 0.271017
11083 -0.810553 0.131915 0.356033 0.213259 0.551719 -0.044859 -0.263701 -0.033869 -0.363061 -0.322374
12181 0.017633 -0.539602 0.595426 -0.321491 0.613198 -0.506536 0.429016 0.516080 -1.492914 0.003576
12438 0.346521 0.219186 1.125398 -0.561340 0.896746 -0.057517 -0.229091 0.189438 1.147301 -0.393881
13793 -0.413561 0.296828 -0.734754 -0.029826 -0.144890 0.861560 0.488779 1.198767 0.069231 -1.096005
13727 -0.864090 1.241867 -0.177498 0.200258 -0.096246 0.670110 0.419866 0.342555 -0.428834 -0.693437
10870 -0.022241 -0.637254 -0.137747 0.210521 0.988204 -1.106426 0.808531 -0.638551 -0.358931 0.325899
12316 -0.595851 -0.132828 -0.467122 -0.158477 -0.253432 -0.064243 0.067261 0.442398 -0.255428 -0.392515
13794 -0.280969 0.540073 -0.365901 -0.364977 -0.504142 0.715287 0.451135 0.783671 0.015706 -0.534817
10031 0.602264 0.647444 -0.254010 0.115987 0.638703 -0.749120 0.534346 -0.645489 -0.669076 0.746188
12146 -0.228159 -0.014569 0.287985 -0.065477 0.033156 0.080610 0.366403 0.881131 -1.319896 -0.139196
13044 0.053361 -0.121771 0.220159 -0.512461 0.016763 0.151474 0.377422 0.107710 -0.078630 -0.414066
14606 -0.885726 0.467167 -1.120274 -0.505039 -0.363874 -0.009756 0.725444 0.517766 -0.605374 -0.146888
10479 -0.561872 -0.147317 -1.273315 -0.090328 -0.474966 0.098854 0.406363 1.082937 0.492725 0.586127
12166 0.576596 -0.410035 0.528729 -0.070140 0.064304 -0.427263 0.342354 0.188920 -0.444779 -0.236451
12236 0.522331 -0.960767 0.065726 -0.887445 0.888470 -0.965627 0.212303 -0.100607 -0.719128 0.436211
13511 -0.505556 0.511098 -0.646849 -1.232389 -0.022201 0.490284 0.581708 0.487289 0.278025 -0.352434
14956 -0.463216 1.101037 0.152054 -0.139235 -0.459732 0.519913 0.187067 0.600866 -0.906255 0.195858
13203 0.114336 0.557661 0.163549 0.248204 -0.216050 0.454819 0.083720 0.491187 -0.175268 -0.378361
10085 0.598868 -0.173767 -0.926995 0.920328 0.695634 0.440884 1.520522 -0.455929 0.158759 0.427804
12482 -0.000529 -0.855595 0.538890 -0.049714 0.236360 1.169572 0.772663 -0.174281 0.062867 0.206917
10806 0.987815 0.620048 -1.102035 -0.405945 0.633461 -0.413330 -0.351959 -0.094392 -0.071866 0.756416
12201 0.029955 -0.409890 1.273418 -0.016916 0.447089 0.528867 0.184408 0.249319 -0.446981 -0.046396
10074 1.038336 0.003905 -0.993611 0.696503 1.010110 0.398683 1.221875 -0.997036 -0.340131 0.201253
10329 0.560684 -0.304653 -0.321387 0.813622 0.418764 0.714700 0.690940 0.067185 -0.208443 -0.303856
10687 -0.073413 -0.327115 0.396433 0.480762 -0.221861 -0.197443 0.246962 0.948417 -0.260693 -0.359322
13664 -1.107494 0.434763 0.431302 0.372587 0.706671 1.323393 0.281356 -0.050559 -0.712905 0.041410
13732 -0.007429 0.486550 -1.119960 -0.458723 -0.363624 0.954071 0.734984 1.059955 -0.066613 -0.723144
10768 0.531900 0.381211 -0.049645 -0.374354 -0.122464 0.040573 0.654798 0.174515 -0.233537 -0.587067
12522 -0.019718 -0.067414 -0.458891 -0.735916 -0.168411 0.850674 0.352696 0.864104 0.303479 -0.552516
10412 0.201820 -0.091670 -0.203517 -0.078212 -0.170182 -0.504655 0.362554 0.608261 -0.738489 0.211105
10713 -0.014216 0.134542 0.570789 -0.414584 -0.509457 -0.248555 0.459904 0.261114 0.576133 -0.268501
10267 -0.072162 0.764004 0.434750 0.264344 -0.079664 0.387524 0.530677 -0.098273 -0.722448 -0.693595
12825 -0.108270 0.051767 -0.216511 0.057998 0.293663 -0.124399 0.163054 0.623980 -0.560510 -0.730238
10431 -0.149171 -0.205609 -0.752557 0.556569 -0.178679 -0.625255 -0.241258 0.706404 0.278554 1.646912
10327 0.960607 -0.012351 0.169465 0.313125 0.070602 -0.003594 1.108352 -0.534846 0.285461 -0.252857
10331 0.573020 0.548300 -0.468618 0.264596 0.718753 -0.260495 -0.200930 -0.002648 -0.617534 -0.258481
10592 -0.438201 0.381774 0.164576 -0.534218 -0.653544 -0.058796 0.267864 -0.077431 -0.043581 -0.137335
12661 -0.847424 -0.009021 0.073387 -0.104373 0.470683 -0.260948 -0.377770 1.143256 -1.047938 -0.616739
10189 0.127551 0.009094 0.485891 0.015764 -0.021853 -0.733507 0.479284 -0.599368 -0.058003 -0.129578
11037 0.697889 -0.761131 -0.550030 0.332659 1.081021 0.364359 0.512230 -0.616492 -0.103166 -0.159815
12422 1.514174 0.345099 0.583342 -0.930056 0.660347 1.084458 -0.545286 1.266053 0.261111 0.308579
10900 -0.173957 -0.024902 0.021370 0.482258 0.592751 -0.847470 0.537824 -0.196771 -0.866279 -0.159548
10753 0.231432 0.045052 0.150882 -0.182452 0.013952 0.226580 1.257123 -0.948814 -0.136412 0.120829
12597 0.874540 -0.095945 -0.027020 0.097069 0.464009 -0.759977 0.173455 0.955040 -0.202664 -0.659631
10398 0.533127 1.206876 -1.165416 -0.152783 0.579694 -0.434340 -0.765083 -0.060099 0.468873 1.508555
12196 1.055394 -0.799806 0.094937 -0.120510 0.645683 0.129908 0.292520 0.825055 -0.610771 -0.068537
10854 0.964996 -0.149487 0.285643 0.876573 0.772115 -0.850349 -0.094296 0.507030 -0.863403 -0.300520
13619 -0.602410 0.533980 0.779203 0.543959 -0.524207 0.097857 0.563638 -0.035349 -0.162123 -0.556687
12478 0.049568 -1.157610 -0.061446 -1.325595 1.050730 -0.641463 -0.050669 -0.220591 0.255134 0.189344
15434 -0.619047 0.240798 -0.731255 -0.733202 -0.542868 0.613028 0.706671 0.923260 -0.511567 0.181035
10480 -0.829500 1.489180 -0.439000 -0.240671 -0.139719 -0.082646 -0.506531 0.162741 0.149449 0.296433
12555 -0.040150 -0.096954 1.463879 -0.359279 0.986161 1.002528 -0.547990 0.283771 0.879503 0.059299
10004 0.536373 0.307301 -0.394693 0.496944 0.777030 -1.181036 -0.184607 0.486919 -0.901055 -0.468337
12195 -0.708631 0.141687 0.241302 0.281849 0.463767 0.527508 -0.417455 0.404519 -1.241547 -0.204881
12251 0.369756 0.077105 0.405834 -0.340143 -0.003218 -0.485806 0.140382 0.169174 -0.747142 0.102843
12418 1.490883 0.265919 0.286281 -0.993042 0.484850 0.359591 -0.112038 1.274591 -0.489603 0.208100
14456 -0.553682 1.039865 0.011266 0.145106 0.168691 1.282914 -0.314121 0.558823 -0.031626 -0.083209
12952 0.235563 1.222206 -0.089191 -0.117573 0.115814 1.151917 -0.640754 0.650276 0.024370 -0.341734
13672 0.005173 -0.160585 -0.283986 -0.732959 0.665684 -0.118119 0.652407 0.504619 0.056767 -0.613678
10407 0.126391 1.152895 0.067742 0.457502 0.618653 -1.126992 -0.404107 0.478578 -0.835662 0.649318
14345 -0.704787 0.899849 1.178594 -0.656568 0.159238 0.862988 0.361563 -0.464808 -0.132068 0.764680
10375 -0.165252 0.514871 0.012720 -0.025655 0.219467 -0.206923 -0.412752 0.021978 -1.031728 0.792666
10137 -0.422441 -0.138633 -0.242990 -0.502226 0.874653 -0.451659 -0.293362 -0.162316 -0.740261 0.029364
11226 0.143415 -0.670236 0.763098 -0.326726 0.481909 0.141222 -0.572340 0.206479 1.508344 0.663427
12583 0.482083 -0.167974 -0.198006 0.193480 -0.066955 0.572716 0.591664 0.676154 -0.462442 -0.700328
12087 0.924881 -0.112128 -0.246024 0.650787 0.955344 -0.208558 0.001027 0.782785 -0.253771 -1.346787
13205 -0.582261 -0.025376 -0.216847 -0.566556 0.514836 0.415719 -0.178528 0.586039 -0.404616 -0.560840
10379 -0.296268 0.401061 0.680283 -0.508473 0.561434 0.317644 -0.198768 -0.301253 0.378184 0.664520
11437 -0.412826 -0.136707 -0.423036 -0.728456 0.146286 -0.439822 -0.287714 0.589098 -0.746379 0.099817
12497 0.388208 -0.151075 1.310414 -0.753966 0.434592 -0.230431 -0.293625 0.572327 -0.055474 -0.442281
10580 0.483459 0.642049 -1.242214 -0.157155 0.556966 -0.031827 -0.292496 0.100891 0.771799 1.542220
13048 -0.527207 -0.600861 0.607906 0.352967 1.230319 1.018764 -0.209858 0.107287 0.325924 -0.890111
14763 -0.554928 0.216163 0.366675 -0.180042 -0.425358 0.166234 1.149087 -0.336585 -0.414127 -0.340686
14794 -0.760072 -0.244345 -1.030906 -0.456261 -0.076341 0.909614 1.023119 0.347322 -0.149946 -0.319796
12721 -0.595223 0.726724 0.258481 -0.399926 0.546470 0.505704 -0.634689 0.479103 -1.076698 0.084081
10555 -0.587226 0.076918 0.114934 0.094748 0.204426 -0.879888 0.165769 -0.119870 -1.119156 0.918743
10599 -0.521889 -0.765882 -0.975855 -0.051034 -0.515282 0.611180 0.606306 1.276219 0.611129 0.252705
10988 -0.303016 1.357902 -0.102538 0.841946 0.895105 0.305498 -0.269306 -0.527896 0.014621 0.522182
13671 0.045131 -0.039523 -1.377251 -0.384462 0.624664 0.775423 0.632001 1.166313 0.545928 -1.091621
12156 -0.450066 -1.327932 0.925584 -0.233003 0.686692 -0.425144 1.563532 0.477970 -0.652862 -0.464704
12423 1.471242 0.342700 0.538234 -0.945199 0.500520 1.076515 -0.432320 1.159566 0.231688 0.258270
10751 0.114785 0.896771 0.020422 -0.055319 -0.122793 -0.185749 0.344085 0.240083 -0.556899 -0.216422
10839 0.859046 0.869337 -1.193368 -0.383249 0.714237 -0.414499 -1.003022 0.019111 0.273322 1.641429
13289 -0.366407 0.221700 1.158710 -0.238227 0.617635 0.698686 -0.334142 0.543878 -1.029834 -0.234210
12429 0.491883 -0.120895 1.302517 -0.757281 1.516915 0.178933 -0.329835 0.132802 1.344398 -0.205010
12460 1.423313 0.429717 0.756744 -0.795057 0.734139 1.123432 -0.789290 1.070471 0.701088 0.028233
14321 -0.359737 -0.936434 0.496751 -0.212991 0.269599 0.287947 1.595996 0.179662 -1.180162 -0.371173
10451 -0.672259 0.991059 0.525627 -0.105803 0.109014 0.658000 0.100004 -0.350680 -0.034105 0.914931
10650 0.679941 -0.842648 0.002392 0.406242 -0.131254 -0.324370 0.405205 0.992793 -0.253281 0.634640
10699 -0.090191 -0.422431 -0.401782 0.741166 -0.028605 -0.166590 0.105236 0.687460 0.198255 1.496531
14682 -1.184365 -0.031093 -0.971222 -1.526357 -0.026154 0.814550 0.732944 0.311819 0.101284 0.038800
10323 0.419182 -0.149770 -1.006138 -0.313600 -0.103251 1.234300 1.105446 0.758716 0.180558 -0.136239
11630 -0.192941 -0.397061 -0.245431 0.114304 -0.474835 -1.035443 0.178230 0.586931 -0.679792 0.628604
12741 -0.083848 0.528374 0.244437 -0.884260 0.133563 0.239257 0.345002 0.384264 -0.746562 -0.463658
11088 0.016883 0.931000 -0.455726 0.460631 0.240405 0.721146 0.601275 -0.498899 -0.050426 -0.437609
11972 0.245494 -0.575592 0.606800 -0.699145 0.705889 -0.269215 0.018193 0.022905 -0.135838 0.456684
12658 0.178461 0.030115 -0.264067 -0.122343 -0.017472 0.494340 0.756685 0.359766 -0.977751 -0.546167
10825 0.400978 1.283663 -0.717536 -0.106595 0.416908 -0.082899 -0.960652 0.163353 -0.234414 0.911650
10836 0.527802 1.051810 -1.216769 0.046358 1.169429 -0.128544 -1.004486 -0.560623 0.934257 1.226854
10914 -1.035186 0.680429 0.371621 0.368567 1.098727 -0.128989 -0.381708 -0.181303 -0.013005 -0.190159
11496 -0.420878 -0.168506 -0.120988 -0.602102 0.604940 -0.304760 -0.605879 -0.315697 1.267395 -0.310319
12539 0.241620 -0.133057 1.393197 -0.710667 1.339504 1.041225 -0.106810 0.029936 0.815852 -0.008527
12743 0.306563 -0.066107 0.342581 0.127758 0.133802 0.132844 -0.138291 0.382970 -0.473956 -0.648121
14401 -0.495984 -0.052765 -0.094942 -1.351950 -0.309758 0.844603 0.543923 0.755608 0.091587 -0.407855
11520 -1.287424 0.715459 0.244987 -0.189012 0.010331 -0.050990 -0.578715 0.639763 -0.528425 -0.558591
11663 0.570199 -0.202526 0.806340 0.523593 0.710462 -0.127503 -0.578345 0.067730 1.465994 0.800339
12393 -0.985884 -0.246998 0.688714 0.380505 0.364501 -0.359285 0.167537 -0.510707 0.417582 -0.863752
12541 -0.527021 -0.227652 0.669071 -0.273511 0.551972 0.002248 -0.375055 -0.120512 -0.785904 0.071590
12546 -0.567212 -0.398171 0.972473 -0.574420 1.401395 0.003334 -0.763857 0.466881 1.059130 -0.441731
13576 -0.679171 0.948226 0.897203 0.371232 0.436624 1.103948 0.145004 -0.253465 -0.911767 0.051864
13827 -0.488873 -0.456914 0.077715 -0.856907 1.058959 -1.458529 0.513275 -0.625176 -0.739443 0.603634
13170 -0.369250 -1.039039 -0.290661 0.245818 0.420186 -0.500450 0.492970 0.099743 -0.880395 -0.199631
13775 -0.215464 1.121276 -0.565226 -0.198856 -0.339504 0.742621 0.820888 0.322437 -0.231948 -0.341026
12490 0.114822 -1.246837 0.185443 -0.849647 1.107782 -0.275536 -0.151283 0.377843 -0.237521 0.028288
10096 1.028826 0.579454 -0.899199 0.400311 0.698671 0.297570 1.377936 -0.638069 -0.052316 0.383826
11502 -0.501631 -0.540848 0.148388 -0.593185 1.214009 0.171442 -0.811150 0.016940 1.170816 -0.192488
12639 0.155387 0.618503 0.559960 -0.341935 -0.182576 -0.458911 -0.031867 0.547081 -0.580739 -0.578966
13773 0.239798 1.025780 0.161910 0.159614 -0.391455 0.109609 0.216744 0.157499 0.495136 -0.972890
14955 -0.329622 0.979831 0.154490 -0.310559 -0.470924 0.437058 0.312885 0.486249 -0.730232 0.348918
10147 -1.001843 -0.241654 0.118382 0.231953 0.925100 -0.071278 0.113648 -0.093980 -0.346403 -0.941609
10309 0.190615 0.273547 -0.876625 0.063671 0.247040 0.161971 0.028493 -0.450226 -0.437513 -0.043299
12686 -0.080540 0.361765 -0.174913 -0.570094 -0.190542 0.410005 0.435590 0.532796 -1.013915 0.074617
13133 -0.603253 -0.276019 0.485082 -0.444099 1.227590 0.254072 -0.247660 -0.063121 0.151504 -0.681895
13443 -0.196629 -0.261018 0.230490 -1.506242 0.482330 -0.875140 0.293372 -0.408125 -0.509749 0.239790
14121 -0.664354 0.542307 0.282401 0.342236 -0.338971 0.445314 0.266665 0.943734 -1.370529 0.011132
10473 -0.154485 -0.351934 -0.465975 -0.473391 -0.362252 -0.399667 0.103304 0.342236 -0.355936 0.894662
10989 0.062438 -0.402904 -0.419038 -0.518245 0.760310 -1.450413 0.051928 -0.013847 -0.237242 -0.287087
13940 -0.033532 0.811847 -0.713334 -0.326290 -0.562357 0.156393 0.176528 1.304899 0.484454 -0.626480
13983 -0.198729 0.795545 0.891240 0.504814 -0.632076 0.181460 0.720822 0.697099 0.222587 -0.434172
10651 -0.014683 -0.694313 -0.222423 -0.507037 0.369235 -0.577173 0.807197 -0.456478 -0.263505 1.273371
10776 0.469464 -0.559377 -0.405998 -0.168245 0.325656 -0.068154 0.926921 -0.551332 0.665920 -0.164343
11068 0.295076 0.121585 -1.095918 -0.973108 -0.205376 0.691869 0.989675 0.714641 -0.184181 -0.024577
13978 -0.604528 0.707560 0.142448 -0.305312 -0.333370 0.389369 0.143393 -0.066865 -0.509775 0.466831
14522 -0.826003 1.018698 0.506749 -0.373713 0.228848 0.814254 -0.310068 -0.279408 -0.867040 0.646814
11057 -0.322446 0.503879 -0.490730 -0.243079 0.336958 -0.787105 0.153659 -0.687848 0.384578 -0.028440
11965 0.744670 -0.128413 1.235786 -0.290471 1.752951 -0.374297 -0.225387 -0.335570 1.580045 0.631475
12226 0.069923 -0.512492 0.422925 -0.002926 0.038018 -0.015052 0.731454 -0.318213 -1.004775 -0.089852
12554 0.213139 0.128632 0.629079 -0.457349 0.916094 0.857777 -0.375266 0.536079 1.182686 -0.656412
10632 -0.692957 0.039489 -0.258447 0.120891 -0.779381 0.169796 1.030944 -0.058423 0.818670 0.649433
10715 0.041648 0.345753 -0.171146 0.476887 -0.350716 0.111822 0.249457 0.830900 -0.849407 -0.075712
10798 0.894607 0.818578 -1.003372 -0.527098 0.823394 -0.199428 -1.065475 0.292427 0.064757 0.975180
10802 -0.037391 0.828728 -0.415024 0.012350 0.512858 0.281612 -1.167311 0.424568 0.157161 0.494994
10828 0.871318 0.753416 -1.256070 -0.323724 0.908056 -0.410731 -1.110544 -0.021529 0.231911 1.533248
11938 -0.480541 0.935090 0.541252 0.253220 0.761840 0.490479 0.099998 -0.727971 0.108450 -0.206887
13040 -0.180060 0.194479 0.766652 -0.347146 0.613884 1.285928 -0.267299 -0.124563 0.064310 0.537938
13450 -0.380332 -0.114885 -1.281222 -0.527141 -0.285245 -0.346715 1.015699 0.925835 -0.515996 -0.521802
14080 -0.276799 0.419543 0.352109 -0.775269 -0.261441 -0.102651 0.246978 0.564652 -1.114211 -0.091289
10594 -0.204025 -0.117124 0.132723 0.117107 -0.172272 0.734240 0.534874 0.345831 -0.257781 -0.028081
10630 -0.186972 -0.061032 -0.263451 0.352716 -0.526213 0.416456 1.113609 -0.185617 0.178500 -0.548781
10834 0.803828 0.791438 -1.243017 -0.301620 0.793934 -0.518934 -1.048943 0.025796 0.152871 1.611708
13758 -0.203912 0.116062 0.275376 -0.024296 -0.310191 0.799066 1.468121 0.174771 -0.407306 -0.495919
13786 -0.602393 0.022864 -0.826765 -0.260804 0.002690 1.015729 0.549159 1.248846 -0.003077 -1.078658
10471 -0.574356 1.309690 -0.373884 -0.081164 -0.397478 -0.052754 -0.151582 0.759281 -0.392811 0.556807
10808 0.656938 0.639182 -1.531331 -0.464516 0.790718 0.026837 -0.433648 -0.328110 0.582285 1.018632
10832 0.768835 0.778005 -1.276803 -0.321381 0.800698 -0.516435 -1.036862 -0.006198 0.228687 1.688460
12402 -0.202361 -1.133667 0.223658 -0.715443 0.621703 -0.416347 1.324172 0.684462 -0.455046 -0.165471
10104 1.281198 0.360211 -0.950843 0.699152 0.815585 0.684044 1.531348 -0.696257 -0.197155 0.120992
10482 -1.093547 0.247069 -0.938902 0.208455 0.035244 -0.429663 -0.082900 0.445868 0.613445 1.046749
12148 0.310436 -0.315179 0.105018 -0.329603 0.154927 -0.088528 0.188324 0.494339 -0.689929 0.052701
12417 1.281159 0.471134 0.488098 -1.086720 -0.101781 0.443400 -0.018189 0.925145 0.221043 0.123014
12676 -0.966488 0.243415 -0.138823 0.377080 0.724902 0.251525 -0.731148 0.519224 -1.334529 -0.126945
12684 -0.059249 0.300751 0.115677 -0.677441 0.523471 0.034045 -0.708680 0.354058 -1.211682 0.485047
13921 -0.390639 1.387205 0.490618 -0.504031 -0.457676 -0.463696 0.512948 -0.024087 0.156724 0.046638
15305 -0.647694 0.688593 -1.156076 -0.683566 -0.235218 0.670938 0.820296 0.735727 0.521148 -0.499674
11990 0.823104 -0.089222 1.047466 -0.368438 1.698066 -0.402040 -0.282837 -0.345636 1.519629 0.738436
12260 0.873706 -0.366124 0.040261 0.025310 1.109787 -0.289604 -0.031562 0.987605 -0.672982 -0.513387
12399 -0.531571 -0.181457 0.771639 0.079804 0.614090 0.637736 1.001712 -0.626649 -0.655437 0.576293
13656 -0.473346 0.755325 1.303456 0.018168 0.570187 1.176317 0.209789 -0.446223 -0.515822 0.191923
10778 -0.082037 0.594903 -0.054865 -0.354044 -0.055446 0.391526 0.341202 -0.927221 -0.041270 0.232642
13038 -0.149100 -0.319540 0.062617 -1.416181 1.101412 -0.437564 0.093169 0.491041 0.243298 -0.137911
13798 -0.728486 -0.003645 0.342477 0.241453 0.134197 0.797265 1.144527 -0.205044 -0.505693 -0.530264
14311 -0.505419 0.956644 0.047366 -1.185689 0.092412 0.472075 1.044079 -0.229190 -0.051222 0.505597
10568 0.417782 0.439422 0.128659 0.401407 -0.541786 -1.069857 0.466975 0.435015 0.121993 -0.004372
13702 -0.314760 0.606391 -0.357832 -0.291122 0.893814 0.597211 -0.280360 0.000214 -0.783190 -0.199762
10243 0.441041 0.181650 -1.278484 0.803093 1.077926 0.090562 0.288666 -0.166508 -0.156408 -0.245549
10886 0.160166 0.042147 -0.030922 1.050780 0.535036 -0.642199 0.357326 -0.249066 -1.077273 -0.547253
12771 1.192243 -0.039463 0.697802 0.521085 0.201606 0.320168 0.300039 0.838015 -0.612342 0.158076
13412 0.102352 -0.704495 -0.163994 -1.485196 0.760460 -1.373481 0.181310 -0.040390 -0.471993 0.201719
10800 0.366745 1.390030 -0.931619 0.044164 1.268565 -0.263056 -1.008670 -0.136241 0.425326 1.216163
11936 0.677512 0.125250 0.350477 0.248472 0.873019 -0.587441 -0.281868 0.388989 -0.890708 0.208044
12702 0.309234 -0.608093 -0.194496 -1.247304 0.648416 -1.168357 -0.119810 0.506066 -0.750081 -0.042634
12840 -0.003031 0.109407 0.419307 0.558037 0.256915 -0.267150 -0.427132 1.000331 -1.283407 -0.187611
10404 0.602472 1.261594 -1.114930 -0.157439 0.625872 -0.419908 -0.807620 -0.120542 0.520403 1.439198
10624 -0.568972 0.188233 0.342156 -0.593792 -0.752921 -0.215045 0.833700 0.299212 0.291813 0.228641
10714 0.076960 0.419525 0.318190 0.610066 -0.338832 1.103253 0.561530 0.966444 0.115614 0.671010
11096 0.273303 -0.598427 -0.440725 0.897682 1.000065 -0.068796 0.576617 -1.298583 -0.138851 0.066549
11971 0.752358 -0.043578 1.445244 -0.283469 1.745121 -0.095269 -0.127525 -0.223575 1.615000 0.440134
12276 -0.663474 -0.368950 0.529364 -0.459585 0.359490 -0.310496 0.163076 -0.824754 -0.502381 0.175272
12452 1.576576 -0.109980 0.109560 -0.267025 0.668190 0.310291 -0.406786 1.159014 -0.598038 -0.379181
12538 -0.021124 -0.299039 1.077556 0.108857 1.300151 0.980547 -0.250177 0.009144 0.906193 -0.713060
12730 0.114639 0.658193 -0.219474 -0.362121 -0.036588 0.162240 0.475138 0.812513 -0.542974 -0.954942
15378 0.117823 0.929379 0.436695 -0.424143 -0.873042 0.063780 0.736912 0.089221 -0.106471 0.013382
10831 0.705892 0.757686 -1.156352 -0.350913 0.693135 -0.439813 -1.033348 -0.037015 0.082622 1.725779
12238 0.422631 -0.066553 0.972432 0.285911 -0.084565 -0.074076 0.221122 0.330327 -0.335021 -0.098729
12257 -0.127182 0.300910 0.394013 0.335146 0.341891 0.792039 0.294378 0.333237 -0.778818 -0.994657
12512 0.416426 -0.230482 1.063424 -0.659795 1.640907 0.293943 -0.704212 0.217381 1.366647 -0.169598
12537 0.794968 -0.240055 1.147539 -0.365226 1.159811 0.088056 -0.523736 0.549630 0.589028 -0.319194
12579 0.252518 -0.816689 0.473106 -0.590562 1.289057 0.367747 -0.399371 0.413087 0.527309 -0.216904
13973 -0.264007 0.244791 -0.470094 -0.844507 -0.704860 -0.300979 0.923703 1.010026 0.791891 -0.685010
10390 -0.228702 0.299888 -0.987265 0.050911 1.044021 -0.812458 -0.880573 0.656436 -0.045124 -0.000624
10511 -0.254114 0.057698 -1.278652 0.515967 -0.523528 -0.072694 -0.240974 0.893403 0.240081 0.306045
12544 0.492475 -0.244337 1.165116 -0.333357 1.728470 0.333779 -0.443374 0.127624 1.411000 -0.071093
13413 0.213987 -0.464862 -0.182874 -1.266743 0.696635 -1.444651 0.382987 -0.406757 -0.728406 0.308125
14726 -0.410610 -0.222532 -1.098955 -0.143796 -0.156502 0.840093 0.951199 0.741466 0.027823 -0.890438
10211 0.203168 0.582180 -0.327380 -0.042948 0.437954 0.410357 0.288336 0.245838 -0.698152 -0.658674
12934 0.095975 0.228476 1.339818 -0.249093 0.832339 0.901958 -0.610432 1.007170 0.628061 -0.761961
10384 0.399089 1.053544 0.241541 0.020748 -0.792025 -0.284600 0.520023 0.149018 0.227835 0.406922
10795 1.250566 0.489763 -0.861587 0.003998 0.933716 -0.401352 -0.880067 -0.202427 -0.219407 0.725845
10840 0.764497 0.664413 -1.229829 -0.311809 0.831352 -0.444629 -1.015700 -0.101529 0.235564 1.676864
12427 0.420261 -0.065561 1.200377 -0.741258 1.539947 0.266495 -0.272467 0.096391 1.506163 -0.188462
10017 0.847321 -0.129722 -0.446355 0.092042 0.744556 -0.454084 0.302305 0.295742 -1.372768 0.226675
10658 0.013810 -1.199395 -0.162596 -0.105524 -0.049645 -0.035523 0.352099 0.383860 0.117816 0.763251
10846 0.435605 -0.489066 0.001510 0.074586 0.694787 -0.302883 -0.264483 0.336263 -0.464467 -0.304662
10880 -0.290994 -0.229672 -0.464116 0.757067 0.534941 -0.203572 -0.069516 -0.277265 -0.741482 -0.705632
12061 -0.096358 0.053256 0.337816 -0.126427 -0.088792 -1.323146 -0.047261 0.461075 0.243861 -0.913356
12191 -0.378389 -0.768314 -0.096666 -0.582248 0.564659 0.163003 0.809635 -0.424749 -0.747144 -0.290846
13713 -0.085657 0.985615 -0.670295 -0.046284 -0.288935 -0.243641 0.906872 0.463525 -0.457777 -0.765389
10192 0.419164 0.553235 -0.422983 1.341041 1.159099 0.410612 0.419410 -0.708303 -0.106772 -0.704274
10762 1.138568 0.473669 -0.359982 -0.392181 0.276698 -0.031544 0.657767 -0.172590 0.573305 0.333298
10777 -0.433538 0.242825 -0.058878 -0.252198 0.295453 0.955609 0.520754 -0.295684 -0.655488 -0.265879
10219 0.890392 -0.145352 -0.726987 1.263906 0.172157 0.422109 0.319241 -0.602180 0.038015 0.633613
10238 0.650686 0.017830 -0.496615 0.159826 0.405161 -0.081335 1.400358 -0.912457 0.442252 -0.270351
11016 0.242567 0.954655 0.381619 -0.754555 -0.285457 -0.046242 0.440158 -0.290322 -0.402563 0.645582
13179 -0.175549 0.577226 0.376683 -0.248514 -0.042274 0.158459 -0.265687 0.136283 -0.780880 0.420484
13328 -0.904009 0.840457 0.906136 -0.446594 -0.352786 0.006823 0.294021 -0.255376 0.003037 -0.054735
13515 -0.204474 0.326885 -1.117971 -0.858779 -0.132437 0.312388 0.719106 1.206241 0.548105 -0.703589
10097 0.997654 0.315261 0.038152 0.181270 0.967722 1.038185 0.857367 -0.830155 -0.050516 0.072279
10761 0.622364 0.591827 0.173368 -0.475116 -0.538477 -0.269667 1.008967 -0.072842 -0.019124 -0.430345
11047 1.111258 0.100663 -0.165903 0.532988 1.331493 0.560436 0.378639 -0.727106 0.330846 -0.053148
11072 0.027374 0.021389 -0.031196 -0.669334 0.598891 -0.055943 0.644649 -0.992207 0.770623 0.081305
12550 0.294634 0.059435 1.076280 -0.442005 0.615626 0.098367 -0.012485 0.043703 1.505217 -0.511436
13954 -0.330767 1.023697 0.244569 -0.376937 -0.538503 0.403358 1.175661 -0.273189 0.277245 0.600869
10387 -0.600065 1.244635 -0.191395 0.405343 0.143884 -0.834106 -0.117526 0.244889 -0.094894 0.080829
11013 0.686180 0.534693 -0.085157 0.565904 0.012720 -0.288956 0.009963 0.675381 0.174925 -0.670151
11257 -0.483269 -1.360455 0.316826 0.834287 -0.230464 -0.168518 -0.058076 0.105130 0.724428 0.988282
13043 0.011638 0.165642 -0.380503 -0.555185 0.400180 0.869130 -0.329686 1.205324 1.170723 -0.702461
13212 0.031390 -0.513808 0.343757 -0.347297 -0.016962 1.075362 0.663630 0.211996 -0.192374 0.530671
10400 0.345608 1.215064 -1.168673 -0.229010 0.602457 -0.538460 -0.786383 -0.075943 0.287623 1.503793
10403 0.629319 1.140706 -1.159010 -0.252728 0.692764 -0.398683 -0.938380 -0.142531 0.560702 1.475435
10813 0.895154 0.698290 -1.296138 -0.383072 0.787661 -0.515763 -1.050831 0.015173 0.250506 1.543223
11955 -0.235692 0.007165 -1.467624 -0.394667 0.397110 1.013816 0.200436 0.080911 -0.251255 -0.125815
12762 0.562659 0.345420 0.865969 -0.253617 0.250693 0.160469 -0.091385 0.132995 -1.234204 0.278359
13199 0.117547 0.534197 -0.177753 -0.047386 -0.541250 -0.263008 0.257234 0.847327 -0.730913 0.074905
12182 -0.141994 -0.881376 0.854233 0.500481 0.446400 -0.193794 -0.173254 0.029082 -0.868748 -0.256668
10269 1.142538 0.239304 -0.646403 0.450534 0.296612 0.607492 0.909678 -0.553130 -0.696833 0.086920
10328 0.938833 0.086118 0.320354 -0.647343 0.814399 0.929694 0.334974 0.292714 -0.524823 -0.118151
10835 -0.043162 0.644719 -0.921352 -0.449824 0.812429 -0.536883 -1.029429 0.069917 0.307260 0.772119
10987 0.628950 -0.064225 0.519980 0.579388 0.463729 -0.700151 0.223443 -0.093359 0.074352 -0.348761
12902 0.352458 0.735935 0.515900 0.277911 -0.098251 0.256155 0.230579 0.410439 -0.427322 -0.363609
13470 0.360284 0.840039 0.332439 -0.224193 -0.737439 -1.160617 0.680397 0.032499 0.957407 -0.622148
10742 0.400297 0.412474 -1.091369 -0.380669 -0.458112 0.167768 1.144101 0.737603 0.336363 -0.499663
10818 1.002312 0.653013 -0.837231 0.051258 0.812091 -0.472307 -1.290634 0.272220 0.234473 0.611048
12457 1.298429 0.228170 0.203976 -0.869327 0.062746 1.025817 -0.294509 1.187796 -0.160839 0.075179
14629 -0.234270 0.431657 -0.715311 -0.459557 -0.499156 0.388497 0.370373 0.980869 0.889447 -0.855829
10823 0.914271 0.858719 -0.132814 -0.454519 1.110372 0.235941 -1.271312 -0.191527 0.852506 0.876279
11960 0.768435 -0.080995 1.131513 -0.341274 1.698082 -0.455912 -0.362182 -0.314051 1.572384 0.719440
12447 1.346663 0.505413 0.840566 -0.560062 0.234082 -0.293179 -0.390458 0.538351 0.077790 -0.101648
10114 1.134140 0.031371 -0.848999 0.758285 1.022037 0.212488 1.250339 -1.007479 -0.196764 0.297158
11059 0.666949 0.528107 -0.558596 0.234395 0.875311 -0.281288 0.550838 -1.067113 0.365300 0.929772
11154 -0.129487 -0.626549 -0.609143 0.613276 -0.057143 -0.403458 -0.280570 0.752386 0.357840 1.804009
12075 -0.573006 -0.848847 0.700283 0.224732 0.941843 -1.010375 -0.743605 0.029369 0.373708 -0.500895
12186 0.031545 -0.610040 -0.344716 -0.499153 -0.271172 0.149052 0.690582 0.982661 0.462502 -0.789472
11992 0.197485 -0.607727 0.716701 -0.856356 0.940361 -0.571526 0.279593 0.009683 0.442265 1.093253
12019 1.291258 -0.870934 0.679806 0.771938 0.683690 -0.540625 0.111854 0.697739 -0.828642 -0.431254
12553 0.170705 -0.276247 0.379185 -0.231202 1.709807 0.272016 -0.317956 0.380580 1.062834 -0.642542
15348 0.115617 0.171028 -0.373879 -1.119844 -0.686980 -0.227301 0.725946 0.717629 0.569301 -0.845356
10448 0.227656 0.351573 -0.352186 -0.243254 0.158563 -0.317115 -0.079726 0.596740 -0.200875 0.008193
10830 0.971184 0.822650 -1.264179 -0.368389 0.837319 -0.410846 -1.067402 0.030841 0.222510 1.635278
12018 1.088979 -0.535226 0.278794 0.370337 0.485338 -0.764365 -0.261915 1.334721 -0.884781 -0.306593
12469 1.047358 -0.273226 0.869738 -0.745813 0.868598 0.499377 -0.166355 0.662214 0.984790 0.147003
14709 -0.489749 -0.411214 -0.846858 -0.395815 -0.384189 0.213485 1.200251 0.321923 0.300106 -0.939683
10191 0.822095 0.305538 -0.333371 0.254853 0.268177 0.317154 0.756173 -0.543747 -0.561783 -0.191200
10829 0.925010 0.871545 -1.225148 -0.195440 0.856877 -0.328680 -1.107547 0.009367 0.135871 1.494166
12556 0.143351 -0.274587 0.635766 -0.931480 1.335593 0.151713 -0.333407 0.466946 1.019242 -0.216035
13575 -0.672576 0.759480 0.373717 -0.184873 0.304238 0.467547 0.847943 -1.032042 0.339369 -0.265970
10119 1.192623 0.226517 -0.819838 0.928206 1.052906 0.257523 0.987233 -0.996729 -0.300527 0.249128
11115 0.009131 -0.465025 -0.515544 0.683494 -0.142691 -0.445143 -0.329867 0.803291 0.304971 1.728389
12938 0.390507 0.245454 -0.929392 -0.790659 -0.053710 1.217433 0.491469 1.327365 0.403302 -0.797027
10960 0.591948 0.252771 -0.306596 0.008550 0.416787 0.063734 -0.038126 0.961643 -0.523981 -0.233477
11180 0.063055 -0.265554 -0.643523 0.754551 -0.251074 0.077817 0.347107 -0.122563 0.650519 1.598757
12792 0.313524 0.596780 0.024252 0.457957 0.405569 1.471263 -0.339700 0.736915 0.136616 -0.901556
14221 -0.222761 0.700549 0.229596 0.285276 -0.457970 0.522897 0.468915 0.589995 -0.215685 -0.673730
10891 -0.284047 0.192867 -1.025519 -0.010793 -0.007367 -0.311152 0.478562 0.677134 0.801190 -0.886738
12622 1.042733 -0.685377 -0.011463 0.233283 0.672155 -0.395042 -0.121327 1.027135 -1.159171 -0.094499
10401 0.412289 1.156290 -1.230651 -0.148889 0.638134 -0.416107 -0.831116 -0.143373 0.368082 1.433945
13030 0.885900 0.128394 0.805671 -0.728727 -0.161879 -0.594393 0.510942 0.392648 0.048647 0.225211
13498 -0.351496 0.108400 0.835474 -0.205442 -0.070917 0.147704 0.574017 -0.790706 -0.332319 -0.086580
10160 0.244213 -0.143733 -0.184785 -0.429293 0.669625 -0.789446 -0.057711 -0.185831 0.201545 0.208437
10796 0.788847 0.963283 -1.189526 -0.301695 0.930945 -0.186675 -0.672800 -0.613036 0.514469 1.514717
11687 -0.225184 -0.305690 0.207039 0.942925 -0.238071 0.116284 -0.622412 1.014683 -0.638663 0.035329
11850 1.013182 0.320735 -0.072922 -0.225918 0.179212 -0.840859 0.250235 0.265763 -0.370859 -0.089765
12437 0.826323 0.197503 0.961930 -0.326156 0.888135 -0.506126 -0.035614 -0.487640 1.566579 0.277676
12851 0.436817 -0.003812 0.413172 -0.346222 0.197805 -0.330901 0.263039 0.005270 0.044889 -0.299964
11973 -0.464358 0.032661 0.295143 -0.549905 1.292585 0.439609 -0.956210 -0.369239 -0.043490 0.444556
10793 0.923846 0.929692 -1.150023 -0.225501 0.757829 -0.362828 -0.462558 -0.606318 0.393020 1.329870
12566 0.079825 -0.131188 0.512831 -0.112220 1.047208 0.665697 -0.597940 0.224541 0.925439 -0.485409
10103 1.092451 0.443409 -0.376954 0.371808 0.285296 0.105524 1.451973 -0.805187 0.180956 0.126873
10477 0.213543 0.411869 -0.358613 0.417036 -0.313657 -0.459536 0.458699 0.677508 -0.641319 0.730978
13761 -0.248664 0.623707 -0.377984 -0.341420 -0.022977 0.005794 1.147888 -0.175033 0.253206 -0.454916
11043 0.622034 0.484033 -0.103702 0.013368 0.230149 0.414412 0.619242 -0.819931 -0.666506 0.534702
12775 0.654357 -0.228783 -0.180634 0.279909 0.381508 -0.571275 0.394679 0.214071 -1.055772 0.046592
12731 0.426646 -0.428271 -0.342063 -0.938833 0.705634 -0.763599 0.042335 1.118356 -0.876850 -0.094209
11177 0.057728 -0.508919 -0.532275 0.731754 -0.163473 -0.427736 -0.327655 0.687423 0.150732 1.781988
12169 1.013503 -1.028338 0.384402 -0.062732 0.509911 -0.421999 0.198540 0.905420 -0.846894 -0.133248
10280 0.603338 0.571743 -0.384283 0.525634 0.422565 0.226623 0.229974 0.216314 0.447898 -1.034317
13946 0.008278 0.809222 0.627496 -0.642183 -0.919741 -0.311496 1.024456 0.383702 -0.341394 -0.362608
