34 64
1 -0.001297 0.003443 -0.007811 -0.003089 -0.005519 -0.006370 -0.004902 -0.002413 -0.001613 0.000607 -0.001263 0.002894 -0.004618 0.005908 -0.007385 0.002664 -0.001292 0.000917 -0.005619 -0.004717 0.004699 0.007317 -0.002915 0.003005 0.005881 0.006166 -0.006484 -0.007202 -0.005159 0.005908 -0.006276 -0.001233 0.007155 0.000518 0.002998 -0.002883 0.002914 0.005229 -0.007527 0.003909 0.007638 0.003878 -0.003431 0.004520 -0.006200 -0.000814 0.006384 -0.003225 -0.003316 -0.005781 -0.007510 0.002794 -0.004506 -0.003663 -0.000132 -0.006979 0.001158 -0.005520 0.001395 0.003121 -0.006214 -0.001343 0.003038 -0.001341
33 -0.000070 0.005070 0.005531 0.001497 -0.004060 -0.004899 0.003803 -0.004106 0.000617 0.003895 -0.004246 -0.005086 -0.007192 -0.005507 0.005491 -0.006178 -0.004318 -0.007301 0.002756 -0.004192 -0.001350 -0.005636 -0.001918 -0.001181 -0.000422 -0.001206 -0.006207 0.004259 -0.005669 -0.001183 -0.003563 -0.003109 0.002694 0.000278 -0.004842 -0.000482 -0.002507 0.003195 -0.004280 0.005390 0.000410 0.000010 -0.003849 -0.004904 -0.000440 0.007529 -0.005736 -0.003383 0.004698 0.002575 -0.003457 -0.002896 -0.001251 0.001606 0.003427 0.005583 0.002830 -0.004110 0.006652 0.004394 -0.003010 -0.003047 0.005956 -0.005843
3 -0.005872 -0.003450 0.001340 0.007337 0.000954 -0.007521 0.004697 -0.004172 0.004799 -0.001752 0.005680 0.003861 0.000879 -0.005680 -0.006876 -0.005917 -0.007116 -0.006133 -0.004286 0.003328 0.000933 -0.007616 -0.006688 0.007301 0.001064 -0.004636 -0.003870 0.003810 -0.004759 0.001271 0.007344 0.005419 -0.004065 -0.000097 0.001874 0.005140 -0.005363 -0.007522 -0.006718 -0.000213 0.001661 0.001076 -0.002854 0.007635 0.001246 -0.001873 0.000796 0.003833 0.002644 -0.003673 -0.006776 -0.002030 0.002027 -0.004529 0.003949 -0.006773 -0.003745 0.004762 -0.004790 0.002179 0.000385 0.006638 -0.003698 -0.006782
24 -0.003208 -0.003599 0.001415 -0.001867 0.003164 -0.000061 0.002081 -0.002291 -0.003327 -0.005731 0.006829 0.004763 0.006844 -0.004916 0.006768 0.006809 -0.003382 -0.003521 0.000804 -0.004917 -0.000905 -0.004917 0.006990 -0.000096 0.007249 0.002265 -0.000245 0.007308 -0.005575 0.002068 0.002530 -0.001034 -0.006885 -0.000114 -0.000545 0.004793 -0.003802 -0.001696 -0.004060 0.002913 0.007654 -0.005040 0.005023 -0.004203 -0.006907 -0.005643 0.006799 0.006071 -0.003293 0.006996 0.005468 -0.001021 -0.000499 0.002029 -0.005343 -0.007582 -0.003664 -0.007571 0.002727 0.000804 -0.002787 0.004378 -0.005535 -0.003986
26 -0.007796 -0.000374 0.002454 0.005364 -0.004942 0.005565 -0.002119 0.006129 -0.007380 -0.006478 0.007522 0.001711 -0.001287 -0.005169 0.002342 -0.007235 -0.002944 -0.002758 0.001679 0.002357 0.005407 0.006681 0.002507 0.001221 -0.001583 0.007291 -0.005405 0.006173 -0.002953 0.000758 0.002845 -0.004118 -0.005192 0.000133 0.004560 0.003006 -0.005954 0.006262 -0.000317 0.006979 0.000835 -0.006487 -0.004649 0.005535 0.003218 0.006171 -0.002670 0.000438 0.002350 0.001473 -0.004196 -0.001143 -0.003936 0.005400 0.007604 -0.006772 0.003343 -0.002654 0.001960 -0.003779 0.002359 -0.002013 -0.003206 0.006434
30 -0.007225 -0.005508 0.006604 -0.007123 -0.001992 0.001860 -0.004735 0.007517 -0.005375 0.000620 0.001844 -0.004203 -0.000526 -0.000140 0.004170 0.002098 -0.000507 0.002608 -0.000728 0.000402 0.002478 -0.004981 0.004501 0.001607 0.007505 -0.004338 -0.000527 0.006182 0.001585 0.003531 -0.001349 0.002880 0.006970 -0.004685 0.004803 0.007337 -0.007585 -0.004450 -0.005978 0.004178 -0.006543 0.007788 -0.001725 0.006331 -0.004866 -0.000924 0.005388 0.001489 -0.000591 0.000198 0.001154 -0.000933 -0.004788 -0.006032 -0.005450 -0.006992 0.000917 0.005433 -0.002201 -0.006636 -0.001161 0.001594 -0.001166 0.004855
2 -0.007032 0.000561 0.002559 0.000233 0.006947 0.001352 0.006303 -0.005664 -0.005636 0.004803 -0.001599 -0.005229 0.006680 -0.002379 0.003919 0.003531 0.005989 0.001932 0.003921 -0.002361 -0.003595 0.006186 -0.001124 0.007263 0.002554 0.001901 -0.006020 0.007023 -0.000783 0.001225 -0.001435 -0.004109 0.006303 0.001151 -0.007768 0.001830 -0.002709 0.000423 0.006030 -0.002230 0.006383 0.001928 -0.007565 0.006710 0.002983 0.007771 -0.005120 -0.005670 0.006759 0.003075 -0.006781 0.003992 0.003967 0.006610 0.003305 -0.005871 -0.007502 -0.007403 -0.007370 -0.003965 0.005625 0.000607 0.000825 0.005344
6 -0.001315 0.001823 -0.004161 -0.006219 0.000248 -0.000357 -0.005427 0.001903 0.000688 0.002408 -0.005554 0.003930 -0.004343 0.000302 0.004458 -0.007464 -0.002744 0.005827 0.005386 0.000601 0.005728 0.007028 0.005100 0.005533 -0.006270 0.002364 0.003180 0.001723 0.004681 -0.007272 0.004222 0.003621 -0.003755 -0.003796 0.002067 -0.002417 0.004634 -0.000841 0.004418 0.007664 -0.003121 -0.005578 0.006270 0.000649 0.007418 0.002134 0.007717 0.000720 0.000413 -0.005696 -0.002255 -0.007403 -0.005306 0.003838 -0.007338 -0.002085 0.005662 0.003011 0.002983 -0.004865 -0.000908 0.001275 0.007652 -0.004626
9 -0.006922 -0.004237 0.002564 -0.000043 0.000297 -0.005082 0.001105 0.007762 0.004951 0.001475 0.007437 0.006274 0.001494 -0.007306 -0.006350 -0.006791 -0.000754 -0.001946 0.007427 -0.005188 0.007387 0.004179 0.005066 0.002072 0.002636 -0.000361 -0.007607 -0.002297 -0.000124 0.003595 -0.000490 -0.000666 -0.005662 -0.007642 0.004036 -0.002813 0.007568 -0.004371 -0.002520 0.000373 0.003983 -0.000565 -0.005862 -0.002930 0.000071 0.002716 0.004221 -0.005776 -0.007454 0.000298 0.004844 -0.007616 0.002695 0.002919 -0.000793 0.006481 0.002256 -0.007731 -0.000243 0.005614 0.005162 0.002331 0.002714 0.001227
15 0.004288 0.000824 0.006080 -0.002266 -0.003976 0.006422 -0.007132 0.007043 0.000881 -0.001932 0.007735 -0.006901 0.000261 -0.007327 0.001112 -0.004993 0.002046 0.007514 0.005858 -0.000753 0.003257 0.004335 -0.000081 0.000446 -0.005456 -0.002041 -0.005590 0.003545 -0.000359 -0.000799 0.006031 0.000432 -0.001420 -0.003611 -0.006687 -0.001279 -0.007410 -0.003263 0.000055 0.007280 -0.006103 0.002704 -0.000001 0.004330 -0.005569 -0.006512 -0.001575 0.004640 -0.004818 0.004184 -0.003277 -0.004424 -0.007551 -0.001583 -0.001858 0.002490 -0.006704 -0.005428 -0.007554 -0.006034 0.002372 -0.001521 -0.002796 0.000905
27 0.006914 0.001774 -0.004461 0.006866 0.003913 0.003923 -0.004504 0.005159 -0.004061 0.002057 0.003293 0.003787 -0.001715 0.004060 0.006296 0.001366 -0.006400 -0.005797 -0.006168 -0.005114 -0.005837 0.004348 -0.007197 -0.004038 0.005923 0.007399 0.001647 0.007441 -0.007134 0.007009 -0.002948 0.004671 0.004854 0.005625 -0.000648 0.006729 -0.003783 0.006788 0.001861 0.007585 -0.007302 0.003518 0.001024 -0.000118 -0.003762 -0.002706 -0.003915 -0.004386 0.004682 0.000037 -0.006513 0.004328 0.000526 0.003740 0.000241 -0.001563 0.007598 -0.007371 0.006762 0.006732 -0.001704 -0.004461 0.001863 -0.005032
25 -0.003245 -0.004751 -0.006438 0.005781 -0.006435 0.002870 -0.005931 -0.007645 0.000895 0.006361 0.005632 -0.002524 -0.007388 0.004701 0.004781 0.005758 0.002651 0.004809 0.006211 -0.000721 0.000904 0.000096 0.003000 0.002858 0.000317 0.005132 0.000090 0.005076 -0.003409 -0.005024 0.007342 0.003780 -0.003753 0.001269 0.007113 -0.006551 -0.006507 0.001861 -0.004305 0.004143 0.001065 0.002597 -0.006128 -0.006496 0.001955 -0.001410 -0.006449 -0.002015 0.002690 -0.004850 0.006183 0.007029 0.007212 0.003595 -0.001464 0.003809 -0.003313 -0.002900 0.001655 0.001482 0.005917 -0.003834 0.004159 0.006891
17 -0.000718 -0.007572 0.005829 0.002441 0.005047 0.007059 -0.007017 -0.004140 -0.006823 -0.001224 0.005685 -0.006537 -0.000420 -0.005851 0.004264 0.005335 -0.007136 -0.000212 -0.004072 0.007070 0.006936 0.001780 0.007398 -0.002424 0.006216 -0.001022 -0.004128 0.006888 0.002878 -0.006798 0.005788 0.003147 0.001639 0.003631 -0.003853 0.001570 0.004916 -0.006967 -0.005773 0.005351 0.001849 0.000489 -0.003933 -0.003202 0.005823 -0.001224 -0.006806 0.006203 -0.004635 0.005097 0.005965 -0.000207 0.001539 0.000426 0.001950 0.005548 -0.003404 0.005996 0.001058 -0.006014 -0.004266 0.001500 -0.004071 -0.005759
14 -0.005157 -0.005477 0.000221 0.005865 -0.004938 -0.000581 -0.001110 -0.000042 -0.005289 -0.002462 -0.003721 0.005383 0.004693 -0.001146 0.001672 -0.005540 0.000150 -0.003173 0.005620 0.002681 0.002086 -0.005863 -0.000460 0.007603 0.007005 0.002267 -0.005442 0.002174 0.001026 -0.000490 -0.001124 0.001551 0.005468 0.003924 0.001240 0.006636 -0.006801 0.007677 -0.006984 -0.004695 -0.001207 -0.006133 0.001932 -0.007063 -0.003365 -0.006859 0.003180 0.002632 -0.001897 -0.004872 0.003859 -0.002494 0.004614 -0.000189 0.000401 -0.007367 0.002254 -0.002333 -0.004231 -0.001033 -0.001836 -0.000472 0.007492 -0.002119
31 0.006904 0.005780 0.003187 -0.000464 0.002855 -0.007603 0.007539 -0.005124 0.006348 0.004799 0.004690 -0.003610 -0.004388 -0.001112 0.005459 -0.000775 0.006803 -0.002302 0.001866 0.007511 0.002242 -0.007102 -0.000569 -0.002582 0.000503 -0.003363 -0.005902 0.002630 0.002834 0.005737 -0.005744 0.004666 0.005106 0.002290 -0.004611 -0.003728 -0.001273 0.000653 -0.000353 -0.000508 0.005310 0.005783 0.004949 0.005903 0.001110 0.007251 0.001665 0.001624 -0.002823 0.002831 -0.007001 -0.005710 -0.005777 0.002425 -0.005073 -0.002482 -0.007120 -0.004160 0.007254 0.000143 -0.005452 0.000360 0.006930 0.005714
20 -0.001345 0.007671 0.006718 -0.005481 -0.001642 -0.000600 0.000952 0.004381 -0.000200 -0.001250 -0.003719 0.006419 -0.007465 0.005018 -0.004868 0.002902 -0.002262 0.007410 -0.005894 -0.004882 0.006085 0.001303 -0.002981 -0.007801 -0.004256 -0.005541 -0.004634 0.006193 0.005830 0.003130 -0.000461 0.005112 -0.000065 -0.002133 -0.003506 0.006637 -0.001766 -0.000111 -0.003837 0.006015 -0.001824 -0.003163 0.003400 -0.004830 -0.005966 0.005266 0.003815 0.001414 -0.004017 0.001926 0.002162 -0.002694 -0.006758 0.005946 -0.000626 0.004123 -0.003845 0.001428 -0.001113 -0.001842 -0.005833 -0.003996 -0.006573 -0.003080
8 -0.005538 -0.005348 -0.004881 0.001914 0.006341 0.007656 0.003299 0.003622 0.006395 -0.001549 -0.003909 -0.005103 -0.005946 0.004885 -0.005519 -0.003683 0.004986 -0.002960 0.007538 -0.003646 0.000526 -0.002899 0.006418 -0.002085 -0.001038 0.000192 0.006858 -0.007329 0.003389 0.006110 -0.007386 0.000345 -0.002719 0.005617 0.000914 0.002972 -0.000737 0.002005 -0.003280 -0.007666 0.001199 -0.002946 0.000270 0.006506 -0.001149 -0.003947 -0.002011 0.006748 0.006826 0.005380 0.006566 -0.004252 -0.006446 -0.004261 -0.002900 -0.005082 0.001673 -0.001350 0.004943 -0.004920 0.003154 -0.004057 0.001160 -0.002360
19 0.006314 -0.004160 -0.005052 -0.001702 -0.002804 0.004929 0.001774 0.004063 -0.001130 -0.006259 -0.006015 -0.001978 -0.004784 0.005012 0.001557 0.002951 -0.000139 -0.006435 -0.004139 -0.000600 -0.004710 -0.007414 0.003584 0.003514 -0.002650 0.005367 -0.001118 0.005698 0.002454 0.001266 -0.004676 0.000462 0.006163 -0.003047 0.005796 0.006387 -0.002659 0.002861 0.006238 -0.006630 0.005915 -0.004831 0.005465 0.002611 -0.002432 -0.005447 0.002115 0.005434 0.005029 0.002004 0.007130 0.001405 -0.004721 -0.001104 -0.002551 0.007687 -0.001871 0.007698 0.000294 -0.005121 -0.006647 -0.002026 -0.005884 0.002102
5 0.001167 0.002001 -0.003350 0.001357 0.003907 0.005599 0.003986 0.003095 0.005695 -0.002771 0.002669 -0.000768 -0.001842 -0.001394 -0.001539 -0.002853 0.001905 -0.001090 0.007403 0.002778 -0.004710 -0.001145 -0.002448 0.004651 0.005937 0.006310 0.002542 -0.003590 -0.003869 0.005545 0.000433 0.004721 0.001133 0.003643 0.000297 0.004233 0.001076 -0.000536 -0.002458 -0.006747 -0.001907 -0.006568 0.007544 -0.004975 0.004873 0.005859 0.002944 0.001086 -0.005297 -0.000517 -0.002419 -0.004296 0.001445 -0.002933 0.006505 0.006401 -0.003795 -0.006080 -0.004797 -0.000006 0.003572 -0.004559 -0.003937 0.005495
22 0.001767 0.006808 0.001514 0.007494 -0.000922 0.003744 -0.007225 0.004136 0.000286 -0.007729 -0.003481 0.000544 0.004187 -0.006983 0.000766 0.004703 0.002337 0.006741 -0.006645 -0.003487 0.006551 0.004141 0.001558 0.005203 0.006188 0.007386 0.007789 -0.005630 -0.006710 -0.006665 -0.007582 0.007372 -0.006332 0.005340 0.002893 -0.000194 -0.002395 -0.002287 -0.003846 0.006422 0.003526 -0.007407 -0.000601 -0.003417 -0.007360 0.006011 0.004234 -0.002660 0.004634 -0.002740 -0.003002 0.006689 0.007452 0.000368 0.007061 0.006062 0.000282 -0.001988 0.003287 -0.000693 0.001644 0.007663 0.004280 -0.002589
32 -0.001686 -0.003377 0.004090 -0.004055 -0.003840 -0.006499 0.005690 -0.000814 0.000965 0.003699 0.004633 -0.000820 -0.004936 0.005136 -0.007328 0.006980 0.001203 0.005865 0.001696 -0.003880 -0.003185 0.000514 0.007220 -0.004930 0.000155 -0.002441 0.004214 0.004732 -0.001179 -0.004623 -0.006764 -0.004709 -0.003556 0.001544 0.005829 -0.005809 0.007159 0.002862 0.003781 0.007545 -0.001311 0.000493 0.002800 0.000201 -0.003139 -0.006166 -0.003360 0.004201 0.002200 0.004708 0.000268 -0.004186 0.001999 -0.003062 -0.007351 0.006302 -0.001244 -0.001154 0.003770 0.007007 -0.006679 -0.005114 -0.002776 -0.003931
23 -0.006422 -0.004923 0.000420 -0.001295 0.004698 0.006769 -0.005033 0.005626 0.007147 0.007179 -0.007221 -0.006913 -0.007722 -0.002927 -0.006942 -0.003221 -0.002250 0.007089 -0.000360 -0.003465 0.000047 0.002240 -0.006074 0.004032 0.005499 0.005379 0.006102 -0.001846 -0.000878 -0.006225 -0.004284 0.007364 -0.003365 0.006366 0.006102 0.006602 -0.005373 0.005933 0.002062 -0.004521 -0.002420 -0.005314 -0.000870 -0.006504 -0.005229 -0.004731 0.002985 0.001153 0.005833 -0.003990 0.002025 -0.007275 0.000253 0.005675 0.007564 -0.007658 -0.003862 -0.004315 -0.007070 -0.007654 -0.000153 -0.007102 -0.003464 0.002187
16 0.007710 0.005226 0.003119 0.006535 -0.007192 -0.006714 -0.000406 -0.002357 0.006832 -0.000163 0.000620 0.006176 -0.000834 0.005891 -0.003850 -0.003534 -0.002682 0.000743 -0.004373 0.002679 -0.005581 -0.006342 0.005784 -0.004111 -0.001781 0.001118 0.000403 -0.006625 0.005846 0.007049 0.004883 -0.003378 0.000435 -0.002509 0.000854 0.007413 -0.002942 0.002637 -0.002719 0.004289 -0.002722 0.006091 0.003933 0.004104 -0.000477 -0.004519 -0.007164 -0.002784 -0.007233 0.003029 0.002662 -0.001086 0.004184 0.000563 -0.007190 -0.005706 -0.004790 -0.002568 -0.006995 0.001642 0.000188 0.001835 -0.001057 0.005433
11 -0.006561 0.006322 -0.002029 0.000480 -0.000092 -0.005747 -0.004587 -0.006622 0.000124 -0.003726 -0.002233 -0.006124 0.004493 -0.006147 0.007589 -0.005044 0.001131 -0.007112 0.004486 -0.004850 0.000436 0.003751 -0.005470 0.000798 -0.004428 0.004050 0.003483 -0.005054 0.005656 -0.007504 0.005629 0.000920 -0.001512 0.004043 0.003390 0.007614 -0.003467 -0.007753 0.006780 0.005592 0.003576 0.000261 0.003234 0.004383 -0.001955 0.004224 0.003916 0.001769 -0.001533 0.003083 -0.007764 0.004295 0.006194 -0.004073 -0.005926 -0.004371 -0.003092 0.005985 0.000674 -0.003333 -0.005651 -0.003279 0.001779 -0.002748
29 0.005744 0.005467 0.004819 -0.005770 0.000563 0.006262 0.004232 -0.001239 0.007467 -0.003894 -0.002600 0.007097 0.004824 0.006255 -0.007631 -0.001879 -0.004132 -0.003189 0.003719 0.003501 -0.000597 -0.002105 0.001323 0.000527 0.000790 0.001804 -0.001630 0.004246 -0.003887 0.002434 0.007194 -0.007757 0.003490 -0.006109 0.000684 0.001983 -0.004016 0.006466 0.001911 -0.004192 0.004221 -0.006164 0.000863 -0.006329 0.001265 -0.003860 0.002335 0.003372 0.000378 0.002461 0.004895 0.004805 0.001870 -0.000764 -0.001438 0.005855 0.003171 -0.004923 0.001027 0.006388 -0.005458 0.005399 0.005003 -0.000010
12 -0.000666 -0.000873 0.005127 -0.001151 -0.002411 0.002734 -0.004352 -0.000512 -0.002894 0.001982 0.005896 -0.000817 0.004445 -0.000672 0.002441 -0.005752 -0.001047 0.006395 0.001648 0.004168 0.000073 -0.000030 0.005358 -0.006753 0.001145 0.006918 0.000279 -0.004774 0.005437 -0.003881 0.003136 0.000629 0.007013 0.001943 0.005281 -0.007689 0.007646 -0.006598 -0.002779 0.006971 -0.007673 0.005043 0.005644 -0.000940 -0.003816 0.004730 -0.000346 -0.005713 0.006685 0.006187 -0.000132 0.005573 -0.001272 0.002867 -0.001594 0.000090 -0.004851 0.007265 -0.003215 -0.006196 -0.005558 -0.007592 0.003374 0.001008
10 -0.003529 0.000946 0.002683 -0.002306 0.005560 -0.004765 0.003864 -0.003287 0.004278 -0.001129 0.004808 -0.002289 -0.004474 0.004176 -0.002990 0.003644 0.003820 -0.004353 -0.004467 -0.004704 -0.005586 -0.001921 -0.007396 -0.006079 0.002728 0.004684 -0.006554 -0.004192 -0.004568 0.006521 0.003302 0.000842 -0.003054 0.005232 -0.001011 0.006617 0.003220 -0.000343 -0.005840 0.007438 -0.005315 -0.004647 -0.001075 -0.001497 -0.005520 0.003583 -0.004863 0.002248 0.003974 -0.004520 0.001577 0.003890 0.002160 0.001518 -0.003196 0.003619 0.006958 -0.001163 0.004409 -0.006935 0.005239 -0.004809 -0.001639 -0.003124
21 0.003777 0.001797 0.002694 -0.007682 0.002787 0.000050 -0.004205 -0.005080 -0.004922 0.005379 0.007540 0.006465 -0.002385 0.004379 0.000726 0.004944 -0.000254 0.001405 0.004488 -0.006246 0.000578 -0.002094 0.001630 0.007169 -0.001675 -0.001672 0.004541 0.002267 -0.001658 0.002952 -0.001500 -0.005686 -0.000771 -0.002587 -0.004407 0.006653 0.002963 0.001544 0.003854 0.000656 0.003133 0.006727 0.005666 -0.005196 -0.003701 -0.006694 0.007479 -0.004119 0.002509 -0.006412 -0.004519 0.000044 -0.006173 -0.001736 0.000594 -0.002512 0.000873 0.000575 -0.001709 0.003067 0.002789 0.002927 0.000961 -0.002218
18 -0.005284 0.005389 0.001597 0.007243 -0.002411 0.001494 0.001547 0.001808 -0.006888 0.003911 0.007003 0.000542 -0.004804 0.003952 -0.007698 -0.002683 0.006525 0.001381 0.005550 0.001636 0.005040 0.005929 -0.002797 -0.005891 0.003458 -0.000932 -0.005832 0.001403 -0.007249 -0.004685 0.004505 -0.007623 -0.003073 -0.007479 0.007773 0.001282 -0.003228 0.006702 0.000111 -0.000708 0.001373 -0.003685 -0.003042 -0.002005 -0.003993 0.001321 0.003060 -0.006688 0.007361 0.003954 0.004784 0.003932 -0.006562 -0.000286 -0.000849 0.002695 -0.000801 0.003192 0.002838 0.003080 0.001853 -0.005453 0.004075 0.004391
28 0.004738 -0.003845 -0.003269 0.006499 0.006296 0.000553 0.005669 -0.002304 0.007779 -0.001036 -0.003206 -0.007163 0.007652 -0.000549 0.003665 0.002200 0.003486 -0.007014 0.006563 0.006669 0.000812 0.007249 -0.003423 0.001596 -0.001618 0.002000 -0.003115 0.004990 -0.006722 -0.007158 -0.007041 -0.005462 -0.001635 0.007115 -0.006081 0.002306 0.000432 -0.002293 -0.004716 -0.004366 -0.007128 0.003331 0.002404 -0.000879 0.003421 -0.006094 0.006855 0.005432 0.002485 -0.001893 -0.001304 -0.000279 0.006801 0.005681 -0.000345 0.000852 0.005866 0.007020 0.002175 0.003883 -0.002318 0.006532 0.005262 0.000813
34 0.002085 -0.003473 0.005113 -0.002117 0.003646 -0.004806 -0.000290 0.004744 -0.001610 -0.005288 0.002328 0.003958 -0.003434 -0.000760 0.006257 0.005812 0.003237 0.001420 0.004959 0.006369 -0.007773 -0.001606 0.000960 0.003655 -0.006446 -0.001566 -0.003443 -0.001195 -0.000032 0.002500 -0.000059 0.001882 0.001288 -0.001120 -0.007735 -0.004773 -0.002809 -0.005516 0.001542 0.001742 0.000001 -0.002799 0.002395 -0.004839 -0.007721 0.003671 -0.000883 0.003091 -0.004921 -0.006834 -0.001905 0.003062 -0.006206 -0.004753 -0.000719 0.001893 0.003908 -0.006098 0.001947 -0.001760 0.002658 -0.004632 0.000436 -0.005122
4 0.003673 0.004253 0.006372 0.006750 -0.007595 -0.004151 0.001825 0.007016 0.007034 0.000885 0.006494 0.002212 -0.001719 -0.000219 0.001630 0.000774 0.006659 0.006543 -0.001643 0.007238 -0.005094 -0.005839 -0.005702 0.000088 -0.007476 0.007000 0.005111 -0.007578 -0.005059 -0.002624 -0.005766 0.004836 -0.002426 0.006877 0.001281 0.005919 0.005386 0.006334 -0.000627 0.000724 0.004666 -0.003348 -0.000152 0.001549 -0.007570 0.001461 -0.001036 0.004803 -0.002887 0.006139 0.001217 -0.004937 0.004499 0.001750 -0.006970 -0.001247 0.002798 0.006541 -0.007806 0.007449 -0.001928 0.007403 0.001636 0.005138
7 -0.003942 -0.003716 0.003909 -0.000672 -0.006923 0.000133 -0.004501 0.004666 -0.003167 -0.007381 0.001460 0.005373 -0.001859 0.003904 0.000174 0.000640 0.007179 0.004749 -0.007307 0.003272 -0.000547 0.006993 -0.004353 -0.003639 -0.006539 -0.001115 -0.006109 0.002090 0.004734 0.003075 0.004160 -0.002462 0.005404 -0.001113 0.005063 0.001977 -0.005572 -0.006588 -0.007526 -0.006770 -0.000647 -0.006042 -0.007378 0.003982 -0.001643 0.003858 -0.000744 -0.000780 -0.000343 -0.000406 0.004737 -0.001525 0.006323 -0.007233 0.004279 -0.005849 0.001852 -0.007651 0.000604 -0.007765 0.007050 0.006334 0.004624 0.006489
13 0.004603 0.000111 0.004560 0.003059 0.004341 -0.001461 0.002309 -0.005003 -0.002784 -0.005116 -0.001428 -0.004040 -0.001454 0.007425 -0.002808 0.007539 0.002130 -0.001952 0.005586 0.001869 -0.003874 0.004576 -0.001048 -0.002226 -0.002652 0.003084 -0.003615 0.004817 -0.003199 0.000689 -0.000189 0.005552 0.006069 -0.004931 0.001334 0.006222 -0.000842 0.006592 -0.003453 0.001700 0.002851 -0.004247 -0.007597 -0.001301 0.006851 -0.002453 0.004371 -0.005082 -0.002469 -0.005553 0.003387 0.003114 0.002945 -0.003853 0.003006 -0.004261 -0.001177 -0.002001 -0.002261 -0.006912 0.002057 0.003239 0.001775 0.002317
